digraph Tree {
node [shape=box, fontname="helvetica"] ;
edge [fontname="helvetica"] ;
0 [label="CPI <= -0.299\nsquared_error = 0.979\nsamples = 1232\nvalue = 0.02"] ;
1 [label="Lag_2 <= -3.607\nsquared_error = 0.976\nsamples = 686\nvalue = -0.042"] ;
0 -> 1 [labeldistance=2.5, labelangle=45, headlabel="True"] ;
2 [label="squared_error = 0.0\nsamples = 6\nvalue = 1.0"] ;
1 -> 2 ;
3 [label="CPI <= -0.414\nsquared_error = 0.975\nsamples = 680\nvalue = -0.051"] ;
1 -> 3 ;
4 [label="Lag_1 <= 0.068\nsquared_error = 0.978\nsamples = 601\nvalue = -0.013"] ;
3 -> 4 ;
5 [label="Lag_1 <= 0.034\nsquared_error = 0.971\nsamples = 362\nvalue = 0.083"] ;
4 -> 5 ;
6 [label="Lag_1 <= -0.046\nsquared_error = 0.974\nsamples = 346\nvalue = 0.058"] ;
5 -> 6 ;
7 [label="Lag_1 <= -0.162\nsquared_error = 0.966\nsamples = 293\nvalue = 0.102"] ;
6 -> 7 ;
8 [label="Unemployment <= -0.61\nsquared_error = 0.977\nsamples = 236\nvalue = 0.038"] ;
7 -> 8 ;
9 [label="Lag_2 <= 1.675\nsquared_error = 0.576\nsamples = 12\nvalue = -0.583"] ;
8 -> 9 ;
10 [label="Lag_1 <= -0.978\nsquared_error = 0.38\nsamples = 11\nvalue = -0.727"] ;
9 -> 10 ;
11 [label="squared_error = 0.0\nsamples = 1\nvalue = 1.0"] ;
10 -> 11 ;
12 [label="Lag_1 <= -0.187\nsquared_error = 0.09\nsamples = 10\nvalue = -0.9"] ;
10 -> 12 ;
13 [label="squared_error = 0.0\nsamples = 9\nvalue = -1.0"] ;
12 -> 13 ;
14 [label="squared_error = 0.0\nsamples = 1\nvalue = 0.0"] ;
12 -> 14 ;
15 [label="squared_error = 0.0\nsamples = 1\nvalue = 1.0"] ;
9 -> 15 ;
16 [label="Unemployment <= -0.586\nsquared_error = 0.977\nsamples = 224\nvalue = 0.071"] ;
8 -> 16 ;
17 [label="Lag_2 <= 0.122\nsquared_error = 0.673\nsamples = 14\nvalue = 0.571"] ;
16 -> 17 ;
18 [label="squared_error = 0.0\nsamples = 6\nvalue = 1.0"] ;
17 -> 18 ;
19 [label="Lag_2 <= 0.352\nsquared_error = 0.938\nsamples = 8\nvalue = 0.25"] ;
17 -> 19 ;
20 [label="squared_error = 0.0\nsamples = 3\nvalue = -1.0"] ;
19 -> 20 ;
21 [label="squared_error = 0.0\nsamples = 5\nvalue = 1.0"] ;
19 -> 21 ;
22 [label="CPI <= -1.087\nsquared_error = 0.98\nsamples = 210\nvalue = 0.038"] ;
16 -> 22 ;
23 [label="CPI <= -1.17\nsquared_error = 0.75\nsamples = 16\nvalue = 0.5"] ;
22 -> 23 ;
24 [label="Lag_2 <= -0.076\nsquared_error = 0.926\nsamples = 11\nvalue = 0.273"] ;
23 -> 24 ;
25 [label="squared_error = 0.0\nsamples = 5\nvalue = 1.0"] ;
24 -> 25 ;
26 [label="Lag_2 <= 0.24\nsquared_error = 0.889\nsamples = 6\nvalue = -0.333"] ;
24 -> 26 ;
27 [label="squared_error = 0.0\nsamples = 4\nvalue = -1.0"] ;
26 -> 27 ;
28 [label="squared_error = 0.0\nsamples = 2\nvalue = 1.0"] ;
26 -> 28 ;
29 [label="squared_error = 0.0\nsamples = 5\nvalue = 1.0"] ;
23 -> 29 ;
30 [label="Lag_1 <= -0.172\nsquared_error = 0.979\nsamples = 194\nvalue = 0.0"] ;
22 -> 30 ;
31 [label="CPI <= -0.858\nsquared_error = 0.978\nsamples = 189\nvalue = 0.026"] ;
30 -> 31 ;
32 [label="Lag_1 <= -0.181\nsquared_error = 0.88\nsamples = 39\nvalue = -0.308"] ;
31 -> 32 ;
33 [label="Lag_2 <= -0.279\nsquared_error = 0.83\nsamples = 37\nvalue = -0.378"] ;
32 -> 33 ;
34 [label="Lag_1 <= -0.446\nsquared_error = 0.96\nsamples = 10\nvalue = 0.2"] ;
33 -> 34 ;
35 [label="squared_error = 0.0\nsamples = 3\nvalue = 1.0"] ;
34 -> 35 ;
36 [label="Lag_1 <= -0.285\nsquared_error = 0.98\nsamples = 7\nvalue = -0.143"] ;
34 -> 36 ;
37 [label="squared_error = 0.0\nsamples = 3\nvalue = -1.0"] ;
36 -> 37 ;
38 [label="Lag_2 <= -0.49\nsquared_error = 0.75\nsamples = 4\nvalue = 0.5"] ;
36 -> 38 ;
39 [label="Lag_2 <= -0.548\nsquared_error = 1.0\nsamples = 2\nvalue = 0.0"] ;
38 -> 39 ;
40 [label="squared_error = 0.0\nsamples = 1\nvalue = 1.0"] ;
39 -> 40 ;
41 [label="squared_error = 0.0\nsamples = 1\nvalue = -1.0"] ;
39 -> 41 ;
42 [label="squared_error = 0.0\nsamples = 2\nvalue = 1.0"] ;
38 -> 42 ;
43 [label="Lag_2 <= 0.386\nsquared_error = 0.612\nsamples = 27\nvalue = -0.593"] ;
33 -> 43 ;
44 [label="Lag_2 <= 0.343\nsquared_error = 0.705\nsamples = 22\nvalue = -0.5"] ;
43 -> 44 ;
45 [label="Lag_1 <= -0.422\nsquared_error = 0.626\nsamples = 21\nvalue = -0.571"] ;
44 -> 45 ;
46 [label="squared_error = 0.0\nsamples = 6\nvalue = -1.0"] ;
45 -> 46 ;
47 [label="Lag_1 <= -0.393\nsquared_error = 0.773\nsamples = 15\nvalue = -0.4"] ;
45 -> 47 ;
48 [label="squared_error = 0.0\nsamples = 1\nvalue = 1.0"] ;
47 -> 48 ;
49 [label="Unemployment <= -0.417\nsquared_error = 0.679\nsamples = 14\nvalue = -0.5"] ;
47 -> 49 ;
50 [label="Lag_1 <= -0.196\nsquared_error = 0.544\nsamples = 13\nvalue = -0.615"] ;
49 -> 50 ;
51 [label="Lag_2 <= -0.217\nsquared_error = 0.38\nsamples = 11\nvalue = -0.727"] ;
50 -> 51 ;
52 [label="Lag_1 <= -0.263\nsquared_error = 1.0\nsamples = 2\nvalue = 0.0"] ;
51 -> 52 ;
53 [label="squared_error = 0.0\nsamples = 1\nvalue = 1.0"] ;
52 -> 53 ;
54 [label="squared_error = 0.0\nsamples = 1\nvalue = -1.0"] ;
52 -> 54 ;
55 [label="CPI <= -0.875\nsquared_error = 0.099\nsamples = 9\nvalue = -0.889"] ;
51 -> 55 ;
56 [label="squared_error = 0.0\nsamples = 7\nvalue = -1.0"] ;
55 -> 56 ;
57 [label="Lag_2 <= 0.177\nsquared_error = 0.25\nsamples = 2\nvalue = -0.5"] ;
55 -> 57 ;
58 [label="squared_error = 0.0\nsamples = 1\nvalue = -1.0"] ;
57 -> 58 ;
59 [label="squared_error = 0.0\nsamples = 1\nvalue = 0.0"] ;
57 -> 59 ;
60 [label="Lag_1 <= -0.186\nsquared_error = 1.0\nsamples = 2\nvalue = 0.0"] ;
50 -> 60 ;
61 [label="squared_error = 0.0\nsamples = 1\nvalue = 1.0"] ;
60 -> 61 ;
62 [label="squared_error = 0.0\nsamples = 1\nvalue = -1.0"] ;
60 -> 62 ;
63 [label="squared_error = 0.0\nsamples = 1\nvalue = 1.0"] ;
49 -> 63 ;
64 [label="squared_error = 0.0\nsamples = 1\nvalue = 1.0"] ;
44 -> 64 ;
65 [label="squared_error = 0.0\nsamples = 5\nvalue = -1.0"] ;
43 -> 65 ;
66 [label="squared_error = 0.0\nsamples = 2\nvalue = 1.0"] ;
32 -> 66 ;
67 [label="CPI <= -0.832\nsquared_error = 0.967\nsamples = 150\nvalue = 0.113"] ;
31 -> 67 ;
68 [label="Lag_2 <= -0.052\nsquared_error = 0.726\nsamples = 21\nvalue = 0.524"] ;
67 -> 68 ;
69 [label="Unemployment <= -0.436\nsquared_error = 0.889\nsamples = 6\nvalue = -0.333"] ;
68 -> 69 ;
70 [label="squared_error = 0.0\nsamples = 1\nvalue = 1.0"] ;
69 -> 70 ;
71 [label="Lag_1 <= -0.766\nsquared_error = 0.64\nsamples = 5\nvalue = -0.6"] ;
69 -> 71 ;
72 [label="squared_error = 0.0\nsamples = 1\nvalue = 1.0"] ;
71 -> 72 ;
73 [label="squared_error = 0.0\nsamples = 4\nvalue = -1.0"] ;
71 -> 73 ;
74 [label="Lag_2 <= 0.132\nsquared_error = 0.249\nsamples = 15\nvalue = 0.867"] ;
68 -> 74 ;
75 [label="squared_error = 0.0\nsamples = 8\nvalue = 1.0"] ;
74 -> 75 ;
76 [label="Lag_2 <= 0.172\nsquared_error = 0.49\nsamples = 7\nvalue = 0.714"] ;
74 -> 76 ;
77 [label="squared_error = 0.0\nsamples = 1\nvalue = -1.0"] ;
76 -> 77 ;
78 [label="squared_error = 0.0\nsamples = 6\nvalue = 1.0"] ;
76 -> 78 ;
79 [label="CPI <= -0.827\nsquared_error = 0.975\nsamples = 129\nvalue = 0.047"] ;
67 -> 79 ;
80 [label="squared_error = 0.0\nsamples = 4\nvalue = -1.0"] ;
79 -> 80 ;
81 [label="Lag_1 <= -0.231\nsquared_error = 0.97\nsamples = 125\nvalue = 0.08"] ;
79 -> 81 ;
82 [label="Lag_1 <= -0.286\nsquared_error = 0.972\nsamples = 112\nvalue = 0.027"] ;
81 -> 82 ;
83 [label="Lag_1 <= -0.305\nsquared_error = 0.974\nsamples = 105\nvalue = 0.086"] ;
82 -> 83 ;
84 [label="CPI <= -0.458\nsquared_error = 0.977\nsamples = 102\nvalue = 0.059"] ;
83 -> 84 ;
85 [label="Lag_2 <= -1.563\nsquared_error = 0.968\nsamples = 85\nvalue = 0.141"] ;
84 -> 85 ;
86 [label="squared_error = 0.0\nsamples = 3\nvalue = -1.0"] ;
85 -> 86 ;
87 [label="Lag_1 <= -0.309\nsquared_error = 0.954\nsamples = 82\nvalue = 0.183"] ;
85 -> 87 ;
88 [label="Lag_2 <= 0.161\nsquared_error = 0.942\nsamples = 80\nvalue = 0.212"] ;
87 -> 88 ;
89 [label="Lag_1 <= -0.344\nsquared_error = 0.881\nsamples = 55\nvalue = 0.345"] ;
88 -> 89 ;
90 [label="Lag_2 <= 0.103\nsquared_error = 0.816\nsamples = 49\nvalue = 0.429"] ;
89 -> 90 ;
91 [label="Lag_2 <= 0.07\nsquared_error = 0.878\nsamples = 43\nvalue = 0.349"] ;
90 -> 91 ;
92 [label="Lag_1 <= -0.381\nsquared_error = 0.81\nsamples = 39\nvalue = 0.436"] ;
91 -> 92 ;
93 [label="Lag_1 <= -0.422\nsquared_error = 0.875\nsamples = 34\nvalue = 0.353"] ;
92 -> 93 ;
94 [label="Lag_1 <= -0.482\nsquared_error = 0.766\nsamples = 31\nvalue = 0.484"] ;
93 -> 94 ;
95 [label="Lag_1 <= -0.499\nsquared_error = 0.834\nsamples = 27\nvalue = 0.407"] ;
94 -> 95 ;
96 [label="Lag_2 <= -0.013\nsquared_error = 0.787\nsamples = 26\nvalue = 0.462"] ;
95 -> 96 ;
97 [label="Lag_1 <= -0.572\nsquared_error = 0.702\nsamples = 22\nvalue = 0.545"] ;
96 -> 97 ;
98 [label="Lag_2 <= -0.135\nsquared_error = 0.581\nsamples = 17\nvalue = 0.647"] ;
97 -> 98 ;
99 [label="Lag_2 <= -1.127\nsquared_error = 0.438\nsamples = 16\nvalue = 0.75"] ;
98 -> 99 ;
100 [label="Lag_1 <= -0.993\nsquared_error = 1.0\nsamples = 2\nvalue = 0.0"] ;
99 -> 100 ;
101 [label="squared_error = 0.0\nsamples = 1\nvalue = -1.0"] ;
100 -> 101 ;
102 [label="squared_error = 0.0\nsamples = 1\nvalue = 1.0"] ;
100 -> 102 ;
103 [label="Lag_1 <= -1.571\nsquared_error = 0.265\nsamples = 14\nvalue = 0.857"] ;
99 -> 103 ;
104 [label="Lag_1 <= -1.625\nsquared_error = 0.75\nsamples = 4\nvalue = 0.5"] ;
103 -> 104 ;
105 [label="squared_error = 0.0\nsamples = 3\nvalue = 1.0"] ;
104 -> 105 ;
106 [label="squared_error = 0.0\nsamples = 1\nvalue = -1.0"] ;
104 -> 106 ;
107 [label="squared_error = 0.0\nsamples = 10\nvalue = 1.0"] ;
103 -> 107 ;
108 [label="squared_error = 0.0\nsamples = 1\nvalue = -1.0"] ;
98 -> 108 ;
109 [label="Lag_1 <= -0.543\nsquared_error = 0.96\nsamples = 5\nvalue = 0.2"] ;
97 -> 109 ;
110 [label="CPI <= -0.609\nsquared_error = 0.889\nsamples = 3\nvalue = -0.333"] ;
109 -> 110 ;
111 [label="squared_error = 0.0\nsamples = 1\nvalue = -1.0"] ;
110 -> 111 ;
112 [label="CPI <= -0.502\nsquared_error = 1.0\nsamples = 2\nvalue = 0.0"] ;
110 -> 112 ;
113 [label="squared_error = 0.0\nsamples = 1\nvalue = 1.0"] ;
112 -> 113 ;
114 [label="squared_error = 0.0\nsamples = 1\nvalue = -1.0"] ;
112 -> 114 ;
115 [label="squared_error = 0.0\nsamples = 2\nvalue = 1.0"] ;
109 -> 115 ;
116 [label="Unemployment <= -0.505\nsquared_error = 1.0\nsamples = 4\nvalue = 0.0"] ;
96 -> 116 ;
117 [label="Lag_2 <= 0.01\nsquared_error = 0.889\nsamples = 3\nvalue = -0.333"] ;
116 -> 117 ;
118 [label="squared_error = 0.0\nsamples = 1\nvalue = -1.0"] ;
117 -> 118 ;
119 [label="Lag_2 <= 0.037\nsquared_error = 1.0\nsamples = 2\nvalue = 0.0"] ;
117 -> 119 ;
120 [label="squared_error = 0.0\nsamples = 1\nvalue = 1.0"] ;
119 -> 120 ;
121 [label="squared_error = 0.0\nsamples = 1\nvalue = -1.0"] ;
119 -> 121 ;
122 [label="squared_error = 0.0\nsamples = 1\nvalue = 1.0"] ;
116 -> 122 ;
123 [label="squared_error = 0.0\nsamples = 1\nvalue = -1.0"] ;
95 -> 123 ;
124 [label="squared_error = 0.0\nsamples = 4\nvalue = 1.0"] ;
94 -> 124 ;
125 [label="squared_error = 0.0\nsamples = 3\nvalue = -1.0"] ;
93 -> 125 ;
126 [label="squared_error = 0.0\nsamples = 5\nvalue = 1.0"] ;
92 -> 126 ;
127 [label="CPI <= -0.609\nsquared_error = 0.75\nsamples = 4\nvalue = -0.5"] ;
91 -> 127 ;
128 [label="squared_error = 0.0\nsamples = 1\nvalue = 1.0"] ;
127 -> 128 ;
129 [label="squared_error = 0.0\nsamples = 3\nvalue = -1.0"] ;
127 -> 129 ;
130 [label="squared_error = 0.0\nsamples = 6\nvalue = 1.0"] ;
90 -> 130 ;
131 [label="Lag_2 <= -0.567\nsquared_error = 0.889\nsamples = 6\nvalue = -0.333"] ;
89 -> 131 ;
132 [label="squared_error = 0.0\nsamples = 2\nvalue = 1.0"] ;
131 -> 132 ;
133 [label="squared_error = 0.0\nsamples = 4\nvalue = -1.0"] ;
131 -> 133 ;
134 [label="Unemployment <= -0.562\nsquared_error = 0.954\nsamples = 25\nvalue = -0.08"] ;
88 -> 134 ;
135 [label="Lag_1 <= -0.354\nsquared_error = 0.75\nsamples = 8\nvalue = -0.5"] ;
134 -> 135 ;
136 [label="Lag_2 <= 0.958\nsquared_error = 0.49\nsamples = 7\nvalue = -0.714"] ;
135 -> 136 ;
137 [label="squared_error = 0.0\nsamples = 6\nvalue = -1.0"] ;
136 -> 137 ;
138 [label="squared_error = 0.0\nsamples = 1\nvalue = 1.0"] ;
136 -> 138 ;
139 [label="squared_error = 0.0\nsamples = 1\nvalue = 1.0"] ;
135 -> 139 ;
140 [label="Lag_1 <= -0.803\nsquared_error = 0.927\nsamples = 17\nvalue = 0.118"] ;
134 -> 140 ;
141 [label="Lag_1 <= -1.165\nsquared_error = 0.992\nsamples = 11\nvalue = -0.091"] ;
140 -> 141 ;
142 [label="Lag_1 <= -1.462\nsquared_error = 0.938\nsamples = 8\nvalue = 0.25"] ;
141 -> 142 ;
143 [label="Lag_2 <= 1.82\nsquared_error = 0.96\nsamples = 5\nvalue = -0.2"] ;
142 -> 143 ;
144 [label="squared_error = 0.0\nsamples = 3\nvalue = -1.0"] ;
143 -> 144 ;
145 [label="squared_error = 0.0\nsamples = 2\nvalue = 1.0"] ;
143 -> 145 ;
146 [label="squared_error = 0.0\nsamples = 3\nvalue = 1.0"] ;
142 -> 146 ;
147 [label="squared_error = 0.0\nsamples = 3\nvalue = -1.0"] ;
141 -> 147 ;
148 [label="CPI <= -0.79\nsquared_error = 0.583\nsamples = 6\nvalue = 0.5"] ;
140 -> 148 ;
149 [label="squared_error = 0.0\nsamples = 1\nvalue = -1.0"] ;
148 -> 149 ;
150 [label="Lag_1 <= -0.335\nsquared_error = 0.16\nsamples = 5\nvalue = 0.8"] ;
148 -> 150 ;
151 [label="squared_error = 0.0\nsamples = 4\nvalue = 1.0"] ;
150 -> 151 ;
152 [label="squared_error = 0.0\nsamples = 1\nvalue = 0.0"] ;
150 -> 152 ;
153 [label="squared_error = 0.0\nsamples = 2\nvalue = -1.0"] ;
87 -> 153 ;
154 [label="Lag_1 <= -1.173\nsquared_error = 0.817\nsamples = 17\nvalue = -0.353"] ;
84 -> 154 ;
155 [label="Lag_1 <= -2.861\nsquared_error = 0.806\nsamples = 6\nvalue = 0.167"] ;
154 -> 155 ;
156 [label="squared_error = 0.0\nsamples = 1\nvalue = 1.0"] ;
155 -> 156 ;
157 [label="Lag_1 <= -2.279\nsquared_error = 0.8\nsamples = 5\nvalue = 0.0"] ;
155 -> 157 ;
158 [label="squared_error = 0.0\nsamples = 1\nvalue = -1.0"] ;
157 -> 158 ;
159 [label="Lag_2 <= -0.691\nsquared_error = 0.688\nsamples = 4\nvalue = 0.25"] ;
157 -> 159 ;
160 [label="squared_error = 0.0\nsamples = 1\nvalue = 1.0"] ;
159 -> 160 ;
161 [label="Lag_1 <= -1.832\nsquared_error = 0.667\nsamples = 3\nvalue = 0.0"] ;
159 -> 161 ;
162 [label="squared_error = 0.0\nsamples = 1\nvalue = 1.0"] ;
161 -> 162 ;
163 [label="Lag_1 <= -1.523\nsquared_error = 0.25\nsamples = 2\nvalue = -0.5"] ;
161 -> 163 ;
164 [label="squared_error = 0.0\nsamples = 1\nvalue = -1.0"] ;
163 -> 164 ;
165 [label="squared_error = 0.0\nsamples = 1\nvalue = 0.0"] ;
163 -> 165 ;
166 [label="Lag_1 <= -0.386\nsquared_error = 0.595\nsamples = 11\nvalue = -0.636"] ;
154 -> 166 ;
167 [label="squared_error = 0.0\nsamples = 8\nvalue = -1.0"] ;
166 -> 167 ;
168 [label="Lag_2 <= 0.572\nsquared_error = 0.889\nsamples = 3\nvalue = 0.333"] ;
166 -> 168 ;
169 [label="squared_error = 0.0\nsamples = 2\nvalue = 1.0"] ;
168 -> 169 ;
170 [label="squared_error = 0.0\nsamples = 1\nvalue = -1.0"] ;
168 -> 170 ;
171 [label="squared_error = 0.0\nsamples = 3\nvalue = 1.0"] ;
83 -> 171 ;
172 [label="Lag_1 <= -0.235\nsquared_error = 0.122\nsamples = 7\nvalue = -0.857"] ;
82 -> 172 ;
173 [label="squared_error = 0.0\nsamples = 6\nvalue = -1.0"] ;
172 -> 173 ;
174 [label="squared_error = 0.0\nsamples = 1\nvalue = 0.0"] ;
172 -> 174 ;
175 [label="Lag_1 <= -0.196\nsquared_error = 0.71\nsamples = 13\nvalue = 0.538"] ;
81 -> 175 ;
176 [label="CPI <= -0.812\nsquared_error = 0.36\nsamples = 10\nvalue = 0.8"] ;
175 -> 176 ;
177 [label="squared_error = 0.0\nsamples = 1\nvalue = -1.0"] ;
176 -> 177 ;
178 [label="squared_error = 0.0\nsamples = 9\nvalue = 1.0"] ;
176 -> 178 ;
179 [label="Lag_1 <= -0.177\nsquared_error = 0.889\nsamples = 3\nvalue = -0.333"] ;
175 -> 179 ;
180 [label="squared_error = 0.0\nsamples = 2\nvalue = -1.0"] ;
179 -> 180 ;
181 [label="squared_error = 0.0\nsamples = 1\nvalue = 1.0"] ;
179 -> 181 ;
182 [label="squared_error = 0.0\nsamples = 5\nvalue = -1.0"] ;
30 -> 182 ;
183 [label="Lag_1 <= -0.131\nsquared_error = 0.829\nsamples = 57\nvalue = 0.368"] ;
7 -> 183 ;
184 [label="Lag_2 <= -0.913\nsquared_error = 0.293\nsamples = 15\nvalue = 0.8"] ;
183 -> 184 ;
185 [label="squared_error = 0.0\nsamples = 1\nvalue = -1.0"] ;
184 -> 185 ;
186 [label="Lag_2 <= 0.31\nsquared_error = 0.066\nsamples = 14\nvalue = 0.929"] ;
184 -> 186 ;
187 [label="squared_error = 0.0\nsamples = 11\nvalue = 1.0"] ;
186 -> 187 ;
188 [label="CPI <= -0.816\nsquared_error = 0.222\nsamples = 3\nvalue = 0.667"] ;
186 -> 188 ;
189 [label="squared_error = 0.0\nsamples = 2\nvalue = 1.0"] ;
188 -> 189 ;
190 [label="squared_error = 0.0\nsamples = 1\nvalue = 0.0"] ;
188 -> 190 ;
191 [label="Lag_1 <= -0.113\nsquared_error = 0.93\nsamples = 42\nvalue = 0.214"] ;
183 -> 191 ;
192 [label="Lag_2 <= 0.047\nsquared_error = 0.49\nsamples = 7\nvalue = -0.714"] ;
191 -> 192 ;
193 [label="squared_error = 0.0\nsamples = 4\nvalue = -1.0"] ;
192 -> 193 ;
194 [label="CPI <= -0.843\nsquared_error = 0.889\nsamples = 3\nvalue = -0.333"] ;
192 -> 194 ;
195 [label="squared_error = 0.0\nsamples = 2\nvalue = -1.0"] ;
194 -> 195 ;
196 [label="squared_error = 0.0\nsamples = 1\nvalue = 1.0"] ;
194 -> 196 ;
197 [label="CPI <= -0.912\nsquared_error = 0.811\nsamples = 35\nvalue = 0.4"] ;
191 -> 197 ;
198 [label="squared_error = 0.0\nsamples = 10\nvalue = 1.0"] ;
197 -> 198 ;
199 [label="Lag_2 <= -0.26\nsquared_error = 0.934\nsamples = 25\nvalue = 0.16"] ;
197 -> 199 ;
200 [label="Lag_2 <= -0.543\nsquared_error = 0.531\nsamples = 7\nvalue = -0.571"] ;
199 -> 200 ;
201 [label="squared_error = 0.0\nsamples = 1\nvalue = 1.0"] ;
200 -> 201 ;
202 [label="Lag_1 <= -0.081\nsquared_error = 0.139\nsamples = 6\nvalue = -0.833"] ;
200 -> 202 ;
203 [label="squared_error = 0.0\nsamples = 3\nvalue = -1.0"] ;
202 -> 203 ;
204 [label="Lag_1 <= -0.062\nsquared_error = 0.222\nsamples = 3\nvalue = -0.667"] ;
202 -> 204 ;
205 [label="squared_error = 0.0\nsamples = 1\nvalue = 0.0"] ;
204 -> 205 ;
206 [label="squared_error = 0.0\nsamples = 2\nvalue = -1.0"] ;
204 -> 206 ;
207 [label="Lag_2 <= 0.208\nsquared_error = 0.802\nsamples = 18\nvalue = 0.444"] ;
199 -> 207 ;
208 [label="Lag_1 <= -0.103\nsquared_error = 0.331\nsamples = 11\nvalue = 0.818"] ;
207 -> 208 ;
209 [label="Lag_2 <= -0.094\nsquared_error = 0.889\nsamples = 3\nvalue = 0.333"] ;
208 -> 209 ;
210 [label="squared_error = 0.0\nsamples = 1\nvalue = -1.0"] ;
209 -> 210 ;
211 [label="squared_error = 0.0\nsamples = 2\nvalue = 1.0"] ;
209 -> 211 ;
212 [label="squared_error = 0.0\nsamples = 8\nvalue = 1.0"] ;
208 -> 212 ;
213 [label="Lag_2 <= 0.438\nsquared_error = 0.98\nsamples = 7\nvalue = -0.143"] ;
207 -> 213 ;
214 [label="squared_error = 0.0\nsamples = 3\nvalue = -1.0"] ;
213 -> 214 ;
215 [label="Lag_1 <= -0.067\nsquared_error = 0.75\nsamples = 4\nvalue = 0.5"] ;
213 -> 215 ;
216 [label="squared_error = 0.0\nsamples = 3\nvalue = 1.0"] ;
215 -> 216 ;
217 [label="squared_error = 0.0\nsamples = 1\nvalue = -1.0"] ;
215 -> 217 ;
218 [label="Lag_1 <= 0.015\nsquared_error = 0.946\nsamples = 53\nvalue = -0.189"] ;
6 -> 218 ;
219 [label="Unemployment <= -0.513\nsquared_error = 0.869\nsamples = 40\nvalue = -0.325"] ;
218 -> 219 ;
220 [label="Lag_2 <= 0.106\nsquared_error = 0.609\nsamples = 16\nvalue = -0.625"] ;
219 -> 220 ;
221 [label="Lag_2 <= -0.163\nsquared_error = 0.84\nsamples = 10\nvalue = -0.4"] ;
220 -> 221 ;
222 [label="Lag_1 <= -0.009\nsquared_error = 0.49\nsamples = 7\nvalue = -0.714"] ;
221 -> 222 ;
223 [label="squared_error = 0.0\nsamples = 5\nvalue = -1.0"] ;
222 -> 223 ;
224 [label="Unemployment <= -0.581\nsquared_error = 1.0\nsamples = 2\nvalue = 0.0"] ;
222 -> 224 ;
225 [label="squared_error = 0.0\nsamples = 1\nvalue = -1.0"] ;
224 -> 225 ;
226 [label="squared_error = 0.0\nsamples = 1\nvalue = 1.0"] ;
224 -> 226 ;
227 [label="Lag_1 <= -0.023\nsquared_error = 0.889\nsamples = 3\nvalue = 0.333"] ;
221 -> 227 ;
228 [label="squared_error = 0.0\nsamples = 2\nvalue = 1.0"] ;
227 -> 228 ;
229 [label="squared_error = 0.0\nsamples = 1\nvalue = -1.0"] ;
227 -> 229 ;
230 [label="squared_error = 0.0\nsamples = 6\nvalue = -1.0"] ;
220 -> 230 ;
231 [label="Lag_2 <= -0.3\nsquared_error = 0.943\nsamples = 24\nvalue = -0.125"] ;
219 -> 231 ;
232 [label="Lag_1 <= -0.037\nsquared_error = 0.188\nsamples = 4\nvalue = 0.75"] ;
231 -> 232 ;
233 [label="squared_error = 0.0\nsamples = 1\nvalue = 0.0"] ;
232 -> 233 ;
234 [label="squared_error = 0.0\nsamples = 3\nvalue = 1.0"] ;
232 -> 234 ;
235 [label="Lag_2 <= -0.071\nsquared_error = 0.91\nsamples = 20\nvalue = -0.3"] ;
231 -> 235 ;
236 [label="squared_error = 0.0\nsamples = 6\nvalue = -1.0"] ;
235 -> 236 ;
237 [label="Lag_2 <= 0.546\nsquared_error = 1.0\nsamples = 14\nvalue = 0.0"] ;
235 -> 237 ;
238 [label="Unemployment <= -0.446\nsquared_error = 0.972\nsamples = 12\nvalue = 0.167"] ;
237 -> 238 ;
239 [label="CPI <= -0.848\nsquared_error = 0.889\nsamples = 6\nvalue = -0.333"] ;
238 -> 239 ;
240 [label="squared_error = 0.0\nsamples = 3\nvalue = -1.0"] ;
239 -> 240 ;
241 [label="Lag_2 <= 0.152\nsquared_error = 0.889\nsamples = 3\nvalue = 0.333"] ;
239 -> 241 ;
242 [label="squared_error = 0.0\nsamples = 2\nvalue = 1.0"] ;
241 -> 242 ;
243 [label="squared_error = 0.0\nsamples = 1\nvalue = -1.0"] ;
241 -> 243 ;
244 [label="Lag_1 <= -0.005\nsquared_error = 0.556\nsamples = 6\nvalue = 0.667"] ;
238 -> 244 ;
245 [label="squared_error = 0.0\nsamples = 3\nvalue = 1.0"] ;
244 -> 245 ;
246 [label="Lag_1 <= 0.003\nsquared_error = 0.889\nsamples = 3\nvalue = 0.333"] ;
244 -> 246 ;
247 [label="squared_error = 0.0\nsamples = 1\nvalue = -1.0"] ;
246 -> 247 ;
248 [label="squared_error = 0.0\nsamples = 2\nvalue = 1.0"] ;
246 -> 248 ;
249 [label="squared_error = 0.0\nsamples = 2\nvalue = -1.0"] ;
237 -> 249 ;
250 [label="CPI <= -0.524\nsquared_error = 0.947\nsamples = 13\nvalue = 0.231"] ;
218 -> 250 ;
251 [label="Lag_1 <= 0.033\nsquared_error = 0.793\nsamples = 11\nvalue = 0.455"] ;
250 -> 251 ;
252 [label="CPI <= -0.947\nsquared_error = 0.395\nsamples = 9\nvalue = 0.778"] ;
251 -> 252 ;
253 [label="Unemployment <= -0.428\nsquared_error = 1.0\nsamples = 2\nvalue = 0.0"] ;
252 -> 253 ;
254 [label="squared_error = 0.0\nsamples = 1\nvalue = -1.0"] ;
253 -> 254 ;
255 [label="squared_error = 0.0\nsamples = 1\nvalue = 1.0"] ;
253 -> 255 ;
256 [label="squared_error = 0.0\nsamples = 7\nvalue = 1.0"] ;
252 -> 256 ;
257 [label="squared_error = 0.0\nsamples = 2\nvalue = -1.0"] ;
251 -> 257 ;
258 [label="squared_error = 0.0\nsamples = 2\nvalue = -1.0"] ;
250 -> 258 ;
259 [label="Unemployment <= -0.52\nsquared_error = 0.609\nsamples = 16\nvalue = 0.625"] ;
5 -> 259 ;
260 [label="Lag_2 <= -0.276\nsquared_error = 0.98\nsamples = 7\nvalue = 0.143"] ;
259 -> 260 ;
261 [label="squared_error = 0.0\nsamples = 2\nvalue = -1.0"] ;
260 -> 261 ;
262 [label="Lag_2 <= 0.243\nsquared_error = 0.64\nsamples = 5\nvalue = 0.6"] ;
260 -> 262 ;
263 [label="squared_error = 0.0\nsamples = 3\nvalue = 1.0"] ;
262 -> 263 ;
264 [label="Unemployment <= -0.571\nsquared_error = 1.0\nsamples = 2\nvalue = 0.0"] ;
262 -> 264 ;
265 [label="squared_error = 0.0\nsamples = 1\nvalue = 1.0"] ;
264 -> 265 ;
266 [label="squared_error = 0.0\nsamples = 1\nvalue = -1.0"] ;
264 -> 266 ;
267 [label="squared_error = 0.0\nsamples = 9\nvalue = 1.0"] ;
259 -> 267 ;
268 [label="CPI <= -0.437\nsquared_error = 0.954\nsamples = 239\nvalue = -0.159"] ;
4 -> 268 ;
269 [label="CPI <= -0.844\nsquared_error = 0.943\nsamples = 228\nvalue = -0.189"] ;
268 -> 269 ;
270 [label="Lag_2 <= -0.174\nsquared_error = 0.986\nsamples = 73\nvalue = 0.027"] ;
269 -> 270 ;
271 [label="Lag_1 <= 0.358\nsquared_error = 0.907\nsamples = 23\nvalue = -0.304"] ;
270 -> 271 ;
272 [label="Lag_1 <= 0.112\nsquared_error = 0.521\nsamples = 13\nvalue = -0.692"] ;
271 -> 272 ;
273 [label="squared_error = 0.0\nsamples = 2\nvalue = 1.0"] ;
272 -> 273 ;
274 [label="squared_error = 0.0\nsamples = 11\nvalue = -1.0"] ;
272 -> 274 ;
275 [label="Unemployment <= -0.446\nsquared_error = 0.96\nsamples = 10\nvalue = 0.2"] ;
271 -> 275 ;
276 [label="squared_error = 0.0\nsamples = 2\nvalue = -1.0"] ;
275 -> 276 ;
277 [label="Lag_2 <= -0.184\nsquared_error = 0.75\nsamples = 8\nvalue = 0.5"] ;
275 -> 277 ;
278 [label="CPI <= -1.087\nsquared_error = 0.49\nsamples = 7\nvalue = 0.714"] ;
277 -> 278 ;
279 [label="Lag_1 <= 0.534\nsquared_error = 0.889\nsamples = 3\nvalue = 0.333"] ;
278 -> 279 ;
280 [label="squared_error = 0.0\nsamples = 2\nvalue = 1.0"] ;
279 -> 280 ;
281 [label="squared_error = 0.0\nsamples = 1\nvalue = -1.0"] ;
279 -> 281 ;
282 [label="squared_error = 0.0\nsamples = 4\nvalue = 1.0"] ;
278 -> 282 ;
283 [label="squared_error = 0.0\nsamples = 1\nvalue = -1.0"] ;
277 -> 283 ;
284 [label="CPI <= -0.912\nsquared_error = 0.948\nsamples = 50\nvalue = 0.18"] ;
270 -> 284 ;
285 [label="Lag_2 <= 0.447\nsquared_error = 0.971\nsamples = 36\nvalue = 0.028"] ;
284 -> 285 ;
286 [label="Lag_1 <= 0.428\nsquared_error = 0.955\nsamples = 33\nvalue = 0.121"] ;
285 -> 286 ;
287 [label="Lag_1 <= 0.393\nsquared_error = 1.0\nsamples = 28\nvalue = 0.0"] ;
286 -> 287 ;
288 [label="Lag_2 <= -0.106\nsquared_error = 0.986\nsamples = 25\nvalue = 0.12"] ;
287 -> 288 ;
289 [label="squared_error = 0.0\nsamples = 4\nvalue = 1.0"] ;
288 -> 289 ;
290 [label="Lag_2 <= 0.282\nsquared_error = 0.998\nsamples = 21\nvalue = -0.048"] ;
288 -> 290 ;
291 [label="Lag_1 <= 0.187\nsquared_error = 0.816\nsamples = 14\nvalue = -0.429"] ;
290 -> 291 ;
292 [label="squared_error = 0.0\nsamples = 5\nvalue = -1.0"] ;
291 -> 292 ;
293 [label="Unemployment <= -0.435\nsquared_error = 0.988\nsamples = 9\nvalue = -0.111"] ;
291 -> 293 ;
294 [label="squared_error = 0.0\nsamples = 3\nvalue = -1.0"] ;
293 -> 294 ;
295 [label="Lag_2 <= 0.151\nsquared_error = 0.889\nsamples = 6\nvalue = 0.333"] ;
293 -> 295 ;
296 [label="squared_error = 0.0\nsamples = 4\nvalue = 1.0"] ;
295 -> 296 ;
297 [label="squared_error = 0.0\nsamples = 2\nvalue = -1.0"] ;
295 -> 297 ;
298 [label="Lag_1 <= 0.257\nsquared_error = 0.49\nsamples = 7\nvalue = 0.714"] ;
290 -> 298 ;
299 [label="Lag_1 <= 0.222\nsquared_error = 0.889\nsamples = 3\nvalue = 0.333"] ;
298 -> 299 ;
300 [label="squared_error = 0.0\nsamples = 2\nvalue = 1.0"] ;
299 -> 300 ;
301 [label="squared_error = 0.0\nsamples = 1\nvalue = -1.0"] ;
299 -> 301 ;
302 [label="squared_error = 0.0\nsamples = 4\nvalue = 1.0"] ;
298 -> 302 ;
303 [label="squared_error = 0.0\nsamples = 3\nvalue = -1.0"] ;
287 -> 303 ;
304 [label="Unemployment <= -0.367\nsquared_error = 0.16\nsamples = 5\nvalue = 0.8"] ;
286 -> 304 ;
305 [label="squared_error = 0.0\nsamples = 4\nvalue = 1.0"] ;
304 -> 305 ;
306 [label="squared_error = 0.0\nsamples = 1\nvalue = 0.0"] ;
304 -> 306 ;
307 [label="squared_error = 0.0\nsamples = 3\nvalue = -1.0"] ;
285 -> 307 ;
308 [label="Lag_2 <= 0.147\nsquared_error = 0.673\nsamples = 14\nvalue = 0.571"] ;
284 -> 308 ;
309 [label="Lag_2 <= 0.059\nsquared_error = 0.98\nsamples = 7\nvalue = 0.143"] ;
308 -> 309 ;
310 [label="squared_error = 0.0\nsamples = 4\nvalue = 1.0"] ;
309 -> 310 ;
311 [label="squared_error = 0.0\nsamples = 3\nvalue = -1.0"] ;
309 -> 311 ;
312 [label="squared_error = 0.0\nsamples = 7\nvalue = 1.0"] ;
308 -> 312 ;
313 [label="Lag_2 <= -0.199\nsquared_error = 0.89\nsamples = 155\nvalue = -0.29"] ;
269 -> 313 ;
314 [label="Lag_2 <= -0.294\nsquared_error = 0.995\nsamples = 69\nvalue = -0.072"] ;
313 -> 314 ;
315 [label="Lag_2 <= -0.368\nsquared_error = 0.944\nsamples = 55\nvalue = -0.236"] ;
314 -> 315 ;
316 [label="Lag_1 <= 0.562\nsquared_error = 0.995\nsamples = 43\nvalue = -0.07"] ;
315 -> 316 ;
317 [label="Lag_1 <= 0.341\nsquared_error = 0.926\nsamples = 22\nvalue = 0.273"] ;
316 -> 317 ;
318 [label="Unemployment <= -0.569\nsquared_error = 0.996\nsamples = 15\nvalue = -0.067"] ;
317 -> 318 ;
319 [label="Unemployment <= -0.592\nsquared_error = 0.49\nsamples = 7\nvalue = -0.714"] ;
318 -> 319 ;
320 [label="squared_error = 0.0\nsamples = 1\nvalue = 1.0"] ;
319 -> 320 ;
321 [label="squared_error = 0.0\nsamples = 6\nvalue = -1.0"] ;
319 -> 321 ;
322 [label="Lag_1 <= 0.154\nsquared_error = 0.75\nsamples = 8\nvalue = 0.5"] ;
318 -> 322 ;
323 [label="squared_error = 0.0\nsamples = 5\nvalue = 1.0"] ;
322 -> 323 ;
324 [label="Lag_1 <= 0.194\nsquared_error = 0.889\nsamples = 3\nvalue = -0.333"] ;
322 -> 324 ;
325 [label="squared_error = 0.0\nsamples = 1\nvalue = -1.0"] ;
324 -> 325 ;
326 [label="Lag_2 <= -0.962\nsquared_error = 1.0\nsamples = 2\nvalue = 0.0"] ;
324 -> 326 ;
327 [label="squared_error = 0.0\nsamples = 1\nvalue = -1.0"] ;
326 -> 327 ;
328 [label="squared_error = 0.0\nsamples = 1\nvalue = 1.0"] ;
326 -> 328 ;
329 [label="squared_error = 0.0\nsamples = 7\nvalue = 1.0"] ;
317 -> 329 ;
330 [label="Lag_2 <= -1.179\nsquared_error = 0.816\nsamples = 21\nvalue = -0.429"] ;
316 -> 330 ;
331 [label="Lag_2 <= -1.784\nsquared_error = 0.988\nsamples = 9\nvalue = 0.111"] ;
330 -> 331 ;
332 [label="CPI <= -0.521\nsquared_error = 0.75\nsamples = 4\nvalue = -0.5"] ;
331 -> 332 ;
333 [label="squared_error = 0.0\nsamples = 3\nvalue = -1.0"] ;
332 -> 333 ;
334 [label="squared_error = 0.0\nsamples = 1\nvalue = 1.0"] ;
332 -> 334 ;
335 [label="Lag_1 <= 0.632\nsquared_error = 0.64\nsamples = 5\nvalue = 0.6"] ;
331 -> 335 ;
336 [label="squared_error = 0.0\nsamples = 1\nvalue = -1.0"] ;
335 -> 336 ;
337 [label="squared_error = 0.0\nsamples = 4\nvalue = 1.0"] ;
335 -> 337 ;
338 [label="CPI <= -0.471\nsquared_error = 0.306\nsamples = 12\nvalue = -0.833"] ;
330 -> 338 ;
339 [label="squared_error = 0.0\nsamples = 10\nvalue = -1.0"] ;
338 -> 339 ;
340 [label="Lag_1 <= 1.065\nsquared_error = 1.0\nsamples = 2\nvalue = 0.0"] ;
338 -> 340 ;
341 [label="squared_error = 0.0\nsamples = 1\nvalue = -1.0"] ;
340 -> 341 ;
342 [label="squared_error = 0.0\nsamples = 1\nvalue = 1.0"] ;
340 -> 342 ;
343 [label="CPI <= -0.523\nsquared_error = 0.306\nsamples = 12\nvalue = -0.833"] ;
315 -> 343 ;
344 [label="squared_error = 0.0\nsamples = 7\nvalue = -1.0"] ;
343 -> 344 ;
345 [label="Lag_1 <= 0.183\nsquared_error = 0.64\nsamples = 5\nvalue = -0.6"] ;
343 -> 345 ;
346 [label="squared_error = 0.0\nsamples = 2\nvalue = -1.0"] ;
345 -> 346 ;
347 [label="Lag_1 <= 0.395\nsquared_error = 0.889\nsamples = 3\nvalue = -0.333"] ;
345 -> 347 ;
348 [label="squared_error = 0.0\nsamples = 1\nvalue = 1.0"] ;
347 -> 348 ;
349 [label="squared_error = 0.0\nsamples = 2\nvalue = -1.0"] ;
347 -> 349 ;
350 [label="Lag_2 <= -0.234\nsquared_error = 0.673\nsamples = 14\nvalue = 0.571"] ;
314 -> 350 ;
351 [label="squared_error = 0.0\nsamples = 5\nvalue = 1.0"] ;
350 -> 351 ;
352 [label="Lag_2 <= -0.227\nsquared_error = 0.889\nsamples = 9\nvalue = 0.333"] ;
350 -> 352 ;
353 [label="squared_error = 0.0\nsamples = 2\nvalue = -1.0"] ;
352 -> 353 ;
354 [label="Lag_1 <= 0.158\nsquared_error = 0.49\nsamples = 7\nvalue = 0.714"] ;
352 -> 354 ;
355 [label="squared_error = 0.0\nsamples = 1\nvalue = -1.0"] ;
354 -> 355 ;
356 [label="squared_error = 0.0\nsamples = 6\nvalue = 1.0"] ;
354 -> 356 ;
357 [label="Lag_2 <= 0.248\nsquared_error = 0.737\nsamples = 86\nvalue = -0.465"] ;
313 -> 357 ;
358 [label="CPI <= -0.458\nsquared_error = 0.532\nsamples = 60\nvalue = -0.633"] ;
357 -> 358 ;
359 [label="Lag_1 <= 0.157\nsquared_error = 0.462\nsamples = 57\nvalue = -0.684"] ;
358 -> 359 ;
360 [label="CPI <= -0.833\nsquared_error = 0.047\nsamples = 20\nvalue = -0.95"] ;
359 -> 360 ;
361 [label="Lag_1 <= 0.142\nsquared_error = 0.25\nsamples = 2\nvalue = -0.5"] ;
360 -> 361 ;
362 [label="squared_error = 0.0\nsamples = 1\nvalue = -1.0"] ;
361 -> 362 ;
363 [label="squared_error = 0.0\nsamples = 1\nvalue = 0.0"] ;
361 -> 363 ;
364 [label="squared_error = 0.0\nsamples = 18\nvalue = -1.0"] ;
360 -> 364 ;
365 [label="Lag_1 <= 0.253\nsquared_error = 0.627\nsamples = 37\nvalue = -0.541"] ;
359 -> 365 ;
366 [label="Lag_1 <= 0.21\nsquared_error = 0.96\nsamples = 10\nvalue = 0.2"] ;
365 -> 366 ;
367 [label="Lag_1 <= 0.167\nsquared_error = 0.889\nsamples = 6\nvalue = -0.333"] ;
366 -> 367 ;
368 [label="squared_error = 0.0\nsamples = 2\nvalue = 1.0"] ;
367 -> 368 ;
369 [label="squared_error = 0.0\nsamples = 4\nvalue = -1.0"] ;
367 -> 369 ;
370 [label="squared_error = 0.0\nsamples = 4\nvalue = 1.0"] ;
366 -> 370 ;
371 [label="CPI <= -0.79\nsquared_error = 0.225\nsamples = 27\nvalue = -0.815"] ;
365 -> 371 ;
372 [label="Lag_2 <= -0.106\nsquared_error = 0.44\nsamples = 10\nvalue = -0.6"] ;
371 -> 372 ;
373 [label="squared_error = 0.0\nsamples = 5\nvalue = -1.0"] ;
372 -> 373 ;
374 [label="CPI <= -0.827\nsquared_error = 0.56\nsamples = 5\nvalue = -0.2"] ;
372 -> 374 ;
375 [label="squared_error = 0.0\nsamples = 1\nvalue = -1.0"] ;
374 -> 375 ;
376 [label="Lag_1 <= 0.34\nsquared_error = 0.5\nsamples = 4\nvalue = 0.0"] ;
374 -> 376 ;
377 [label="Lag_1 <= 0.302\nsquared_error = 0.25\nsamples = 2\nvalue = -0.5"] ;
376 -> 377 ;
378 [label="squared_error = 0.0\nsamples = 1\nvalue = 0.0"] ;
377 -> 378 ;
379 [label="squared_error = 0.0\nsamples = 1\nvalue = -1.0"] ;
377 -> 379 ;
380 [label="Lag_1 <= 0.385\nsquared_error = 0.25\nsamples = 2\nvalue = 0.5"] ;
376 -> 380 ;
381 [label="squared_error = 0.0\nsamples = 1\nvalue = 1.0"] ;
380 -> 381 ;
382 [label="squared_error = 0.0\nsamples = 1\nvalue = 0.0"] ;
380 -> 382 ;
383 [label="Lag_2 <= -0.095\nsquared_error = 0.055\nsamples = 17\nvalue = -0.941"] ;
371 -> 383 ;
384 [label="Lag_2 <= -0.123\nsquared_error = 0.188\nsamples = 4\nvalue = -0.75"] ;
383 -> 384 ;
385 [label="squared_error = 0.0\nsamples = 3\nvalue = -1.0"] ;
384 -> 385 ;
386 [label="squared_error = 0.0\nsamples = 1\nvalue = 0.0"] ;
384 -> 386 ;
387 [label="squared_error = 0.0\nsamples = 13\nvalue = -1.0"] ;
383 -> 387 ;
388 [label="Lag_1 <= 0.545\nsquared_error = 0.889\nsamples = 3\nvalue = 0.333"] ;
358 -> 388 ;
389 [label="squared_error = 0.0\nsamples = 2\nvalue = 1.0"] ;
388 -> 389 ;
390 [label="squared_error = 0.0\nsamples = 1\nvalue = -1.0"] ;
388 -> 390 ;
391 [label="Unemployment <= -0.587\nsquared_error = 0.994\nsamples = 26\nvalue = -0.077"] ;
357 -> 391 ;
392 [label="Lag_1 <= 1.38\nsquared_error = 0.556\nsamples = 6\nvalue = 0.667"] ;
391 -> 392 ;
393 [label="squared_error = 0.0\nsamples = 5\nvalue = 1.0"] ;
392 -> 393 ;
394 [label="squared_error = 0.0\nsamples = 1\nvalue = -1.0"] ;
392 -> 394 ;
395 [label="Lag_2 <= 0.312\nsquared_error = 0.91\nsamples = 20\nvalue = -0.3"] ;
391 -> 395 ;
396 [label="squared_error = 0.0\nsamples = 2\nvalue = 1.0"] ;
395 -> 396 ;
397 [label="Lag_2 <= 3.0\nsquared_error = 0.802\nsamples = 18\nvalue = -0.444"] ;
395 -> 397 ;
398 [label="Unemployment <= -0.467\nsquared_error = 0.72\nsamples = 17\nvalue = -0.529"] ;
397 -> 398 ;
399 [label="Lag_2 <= 0.512\nsquared_error = 0.926\nsamples = 11\nvalue = -0.273"] ;
398 -> 399 ;
400 [label="squared_error = 0.0\nsamples = 5\nvalue = -1.0"] ;
399 -> 400 ;
401 [label="Lag_1 <= 1.082\nsquared_error = 0.889\nsamples = 6\nvalue = 0.333"] ;
399 -> 401 ;
402 [label="squared_error = 0.0\nsamples = 4\nvalue = 1.0"] ;
401 -> 402 ;
403 [label="squared_error = 0.0\nsamples = 2\nvalue = -1.0"] ;
401 -> 403 ;
404 [label="squared_error = 0.0\nsamples = 6\nvalue = -1.0"] ;
398 -> 404 ;
405 [label="squared_error = 0.0\nsamples = 1\nvalue = 1.0"] ;
397 -> 405 ;
406 [label="Lag_1 <= 1.828\nsquared_error = 0.793\nsamples = 11\nvalue = 0.455"] ;
268 -> 406 ;
407 [label="Lag_1 <= 0.187\nsquared_error = 0.49\nsamples = 7\nvalue = 0.714"] ;
406 -> 407 ;
408 [label="Lag_1 <= 0.115\nsquared_error = 0.889\nsamples = 3\nvalue = 0.333"] ;
407 -> 408 ;
409 [label="squared_error = 0.0\nsamples = 2\nvalue = 1.0"] ;
408 -> 409 ;
410 [label="squared_error = 0.0\nsamples = 1\nvalue = -1.0"] ;
408 -> 410 ;
411 [label="squared_error = 0.0\nsamples = 4\nvalue = 1.0"] ;
407 -> 411 ;
412 [label="Lag_2 <= 0.368\nsquared_error = 1.0\nsamples = 4\nvalue = 0.0"] ;
406 -> 412 ;
413 [label="squared_error = 0.0\nsamples = 1\nvalue = -1.0"] ;
412 -> 413 ;
414 [label="Lag_1 <= 2.239\nsquared_error = 0.889\nsamples = 3\nvalue = 0.333"] ;
412 -> 414 ;
415 [label="squared_error = 0.0\nsamples = 1\nvalue = 1.0"] ;
414 -> 415 ;
416 [label="Lag_2 <= 1.291\nsquared_error = 1.0\nsamples = 2\nvalue = 0.0"] ;
414 -> 416 ;
417 [label="squared_error = 0.0\nsamples = 1\nvalue = 1.0"] ;
416 -> 417 ;
418 [label="squared_error = 0.0\nsamples = 1\nvalue = -1.0"] ;
416 -> 418 ;
419 [label="Lag_2 <= 10.915\nsquared_error = 0.858\nsamples = 79\nvalue = -0.342"] ;
3 -> 419 ;
420 [label="Lag_2 <= 0.596\nsquared_error = 0.845\nsamples = 78\nvalue = -0.359"] ;
419 -> 420 ;
421 [label="Lag_1 <= 0.637\nsquared_error = 0.89\nsamples = 61\nvalue = -0.279"] ;
420 -> 421 ;
422 [label="Lag_2 <= 0.293\nsquared_error = 0.837\nsamples = 56\nvalue = -0.357"] ;
421 -> 422 ;
423 [label="Lag_1 <= 0.321\nsquared_error = 0.794\nsamples = 51\nvalue = -0.431"] ;
422 -> 423 ;
424 [label="Lag_1 <= 0.293\nsquared_error = 0.851\nsamples = 45\nvalue = -0.356"] ;
423 -> 424 ;
425 [label="Lag_2 <= -0.886\nsquared_error = 0.828\nsamples = 44\nvalue = -0.386"] ;
424 -> 425 ;
426 [label="Lag_1 <= -0.501\nsquared_error = 0.49\nsamples = 14\nvalue = -0.714"] ;
425 -> 426 ;
427 [label="Lag_1 <= -0.707\nsquared_error = 0.691\nsamples = 9\nvalue = -0.556"] ;
426 -> 427 ;
428 [label="Lag_1 <= -2.321\nsquared_error = 0.438\nsamples = 8\nvalue = -0.75"] ;
427 -> 428 ;
429 [label="Lag_1 <= -3.396\nsquared_error = 0.889\nsamples = 3\nvalue = -0.333"] ;
428 -> 429 ;
430 [label="squared_error = 0.0\nsamples = 2\nvalue = -1.0"] ;
429 -> 430 ;
431 [label="squared_error = 0.0\nsamples = 1\nvalue = 1.0"] ;
429 -> 431 ;
432 [label="squared_error = 0.0\nsamples = 5\nvalue = -1.0"] ;
428 -> 432 ;
433 [label="squared_error = 0.0\nsamples = 1\nvalue = 1.0"] ;
427 -> 433 ;
434 [label="squared_error = 0.0\nsamples = 5\nvalue = -1.0"] ;
426 -> 434 ;
435 [label="Lag_2 <= -0.423\nsquared_error = 0.912\nsamples = 30\nvalue = -0.233"] ;
425 -> 435 ;
436 [label="Lag_1 <= -0.589\nsquared_error = 0.934\nsamples = 16\nvalue = 0.062"] ;
435 -> 436 ;
437 [label="Lag_1 <= -1.045\nsquared_error = 0.776\nsamples = 7\nvalue = -0.286"] ;
436 -> 437 ;
438 [label="CPI <= -0.403\nsquared_error = 0.889\nsamples = 3\nvalue = 0.333"] ;
437 -> 438 ;
439 [label="squared_error = 0.0\nsamples = 2\nvalue = 1.0"] ;
438 -> 439 ;
440 [label="squared_error = 0.0\nsamples = 1\nvalue = -1.0"] ;
438 -> 440 ;
441 [label="Unemployment <= -0.621\nsquared_error = 0.188\nsamples = 4\nvalue = -0.75"] ;
437 -> 441 ;
442 [label="Lag_1 <= -0.783\nsquared_error = 0.25\nsamples = 2\nvalue = -0.5"] ;
441 -> 442 ;
443 [label="squared_error = 0.0\nsamples = 1\nvalue = -1.0"] ;
442 -> 443 ;
444 [label="squared_error = 0.0\nsamples = 1\nvalue = 0.0"] ;
442 -> 444 ;
445 [label="squared_error = 0.0\nsamples = 2\nvalue = -1.0"] ;
441 -> 445 ;
446 [label="Lag_1 <= 0.281\nsquared_error = 0.889\nsamples = 9\nvalue = 0.333"] ;
436 -> 446 ;
447 [label="Lag_2 <= -0.532\nsquared_error = 0.75\nsamples = 8\nvalue = 0.5"] ;
446 -> 447 ;
448 [label="Lag_2 <= -0.568\nsquared_error = 1.0\nsamples = 4\nvalue = 0.0"] ;
447 -> 448 ;
449 [label="squared_error = 0.0\nsamples = 2\nvalue = 1.0"] ;
448 -> 449 ;
450 [label="squared_error = 0.0\nsamples = 2\nvalue = -1.0"] ;
448 -> 450 ;
451 [label="squared_error = 0.0\nsamples = 4\nvalue = 1.0"] ;
447 -> 451 ;
452 [label="squared_error = 0.0\nsamples = 1\nvalue = -1.0"] ;
446 -> 452 ;
453 [label="CPI <= -0.343\nsquared_error = 0.673\nsamples = 14\nvalue = -0.571"] ;
435 -> 453 ;
454 [label="Lag_2 <= -0.242\nsquared_error = 0.36\nsamples = 10\nvalue = -0.8"] ;
453 -> 454 ;
455 [label="Unemployment <= -0.621\nsquared_error = 1.0\nsamples = 2\nvalue = 0.0"] ;
454 -> 455 ;
456 [label="squared_error = 0.0\nsamples = 1\nvalue = -1.0"] ;
455 -> 456 ;
457 [label="squared_error = 0.0\nsamples = 1\nvalue = 1.0"] ;
455 -> 457 ;
458 [label="squared_error = 0.0\nsamples = 8\nvalue = -1.0"] ;
454 -> 458 ;
459 [label="Lag_2 <= -0.014\nsquared_error = 1.0\nsamples = 4\nvalue = 0.0"] ;
453 -> 459 ;
460 [label="squared_error = 0.0\nsamples = 2\nvalue = -1.0"] ;
459 -> 460 ;
461 [label="squared_error = 0.0\nsamples = 2\nvalue = 1.0"] ;
459 -> 461 ;
462 [label="squared_error = 0.0\nsamples = 1\nvalue = 1.0"] ;
424 -> 462 ;
463 [label="squared_error = 0.0\nsamples = 6\nvalue = -1.0"] ;
423 -> 463 ;
464 [label="Lag_1 <= -0.75\nsquared_error = 0.64\nsamples = 5\nvalue = 0.4"] ;
422 -> 464 ;
465 [label="Unemployment <= 0.822\nsquared_error = 0.667\nsamples = 3\nvalue = 0.0"] ;
464 -> 465 ;
466 [label="Lag_2 <= 0.442\nsquared_error = 0.25\nsamples = 2\nvalue = -0.5"] ;
465 -> 466 ;
467 [label="squared_error = 0.0\nsamples = 1\nvalue = 0.0"] ;
466 -> 467 ;
468 [label="squared_error = 0.0\nsamples = 1\nvalue = -1.0"] ;
466 -> 468 ;
469 [label="squared_error = 0.0\nsamples = 1\nvalue = 1.0"] ;
465 -> 469 ;
470 [label="squared_error = 0.0\nsamples = 2\nvalue = 1.0"] ;
464 -> 470 ;
471 [label="Lag_2 <= 0.123\nsquared_error = 0.64\nsamples = 5\nvalue = 0.6"] ;
421 -> 471 ;
472 [label="squared_error = 0.0\nsamples = 4\nvalue = 1.0"] ;
471 -> 472 ;
473 [label="squared_error = 0.0\nsamples = 1\nvalue = -1.0"] ;
471 -> 473 ;
474 [label="Lag_1 <= -4.447\nsquared_error = 0.581\nsamples = 17\nvalue = -0.647"] ;
420 -> 474 ;
475 [label="squared_error = 0.0\nsamples = 1\nvalue = 1.0"] ;
474 -> 475 ;
476 [label="Lag_2 <= 0.977\nsquared_error = 0.438\nsamples = 16\nvalue = -0.75"] ;
474 -> 476 ;
477 [label="squared_error = 0.0\nsamples = 8\nvalue = -1.0"] ;
476 -> 477 ;
478 [label="Lag_2 <= 1.114\nsquared_error = 0.75\nsamples = 8\nvalue = -0.5"] ;
476 -> 478 ;
479 [label="squared_error = 0.0\nsamples = 1\nvalue = 1.0"] ;
478 -> 479 ;
480 [label="Lag_1 <= 0.778\nsquared_error = 0.49\nsamples = 7\nvalue = -0.714"] ;
478 -> 480 ;
481 [label="squared_error = 0.0\nsamples = 4\nvalue = -1.0"] ;
480 -> 481 ;
482 [label="Lag_1 <= 1.065\nsquared_error = 0.889\nsamples = 3\nvalue = -0.333"] ;
480 -> 482 ;
483 [label="squared_error = 0.0\nsamples = 1\nvalue = 1.0"] ;
482 -> 483 ;
484 [label="squared_error = 0.0\nsamples = 2\nvalue = -1.0"] ;
482 -> 484 ;
485 [label="squared_error = 0.0\nsamples = 1\nvalue = 1.0"] ;
419 -> 485 ;
486 [label="Lag_1 <= -1.66\nsquared_error = 0.972\nsamples = 546\nvalue = 0.099"] ;
0 -> 486 [labeldistance=2.5, labelangle=-45, headlabel="False"] ;
487 [label="Unemployment <= -0.522\nsquared_error = 0.331\nsamples = 11\nvalue = 0.818"] ;
486 -> 487 ;
488 [label="Lag_1 <= -1.866\nsquared_error = 0.75\nsamples = 4\nvalue = 0.5"] ;
487 -> 488 ;
489 [label="squared_error = 0.0\nsamples = 1\nvalue = -1.0"] ;
488 -> 489 ;
490 [label="squared_error = 0.0\nsamples = 3\nvalue = 1.0"] ;
488 -> 490 ;
491 [label="squared_error = 0.0\nsamples = 7\nvalue = 1.0"] ;
487 -> 491 ;
492 [label="Lag_1 <= 0.579\nsquared_error = 0.974\nsamples = 535\nvalue = 0.084"] ;
486 -> 492 ;
493 [label="Lag_2 <= -1.129\nsquared_error = 0.968\nsamples = 401\nvalue = 0.132"] ;
492 -> 493 ;
494 [label="Lag_1 <= -0.773\nsquared_error = 0.395\nsamples = 18\nvalue = 0.778"] ;
493 -> 494 ;
495 [label="Lag_2 <= -1.296\nsquared_error = 1.0\nsamples = 2\nvalue = 0.0"] ;
494 -> 495 ;
496 [label="squared_error = 0.0\nsamples = 1\nvalue = 1.0"] ;
495 -> 496 ;
497 [label="squared_error = 0.0\nsamples = 1\nvalue = -1.0"] ;
495 -> 497 ;
498 [label="Lag_2 <= -1.209\nsquared_error = 0.234\nsamples = 16\nvalue = 0.875"] ;
494 -> 498 ;
499 [label="squared_error = 0.0\nsamples = 11\nvalue = 1.0"] ;
498 -> 499 ;
500 [label="Lag_2 <= -1.196\nsquared_error = 0.64\nsamples = 5\nvalue = 0.6"] ;
498 -> 500 ;
501 [label="squared_error = 0.0\nsamples = 1\nvalue = -1.0"] ;
500 -> 501 ;
502 [label="squared_error = 0.0\nsamples = 4\nvalue = 1.0"] ;
500 -> 502 ;
503 [label="Lag_1 <= -0.715\nsquared_error = 0.974\nsamples = 383\nvalue = 0.102"] ;
493 -> 503 ;
504 [label="Lag_2 <= -0.133\nsquared_error = 0.965\nsamples = 69\nvalue = -0.145"] ;
503 -> 504 ;
505 [label="Unemployment <= 0.791\nsquared_error = 0.932\nsamples = 28\nvalue = 0.179"] ;
504 -> 505 ;
506 [label="Lag_1 <= -0.833\nsquared_error = 0.836\nsamples = 23\nvalue = 0.348"] ;
505 -> 506 ;
507 [label="Lag_2 <= -1.091\nsquared_error = 0.621\nsamples = 16\nvalue = 0.562"] ;
506 -> 507 ;
508 [label="squared_error = 0.0\nsamples = 1\nvalue = -1.0"] ;
507 -> 508 ;
509 [label="Lag_2 <= -0.749\nsquared_error = 0.489\nsamples = 15\nvalue = 0.667"] ;
507 -> 509 ;
510 [label="Lag_2 <= -0.939\nsquared_error = 0.889\nsamples = 6\nvalue = 0.333"] ;
509 -> 510 ;
511 [label="squared_error = 0.0\nsamples = 3\nvalue = 1.0"] ;
510 -> 511 ;
512 [label="Lag_1 <= -1.153\nsquared_error = 0.889\nsamples = 3\nvalue = -0.333"] ;
510 -> 512 ;
513 [label="squared_error = 0.0\nsamples = 1\nvalue = 1.0"] ;
512 -> 513 ;
514 [label="squared_error = 0.0\nsamples = 2\nvalue = -1.0"] ;
512 -> 514 ;
515 [label="CPI <= 0.255\nsquared_error = 0.099\nsamples = 9\nvalue = 0.889"] ;
509 -> 515 ;
516 [label="Lag_1 <= -1.135\nsquared_error = 0.25\nsamples = 2\nvalue = 0.5"] ;
515 -> 516 ;
517 [label="squared_error = 0.0\nsamples = 1\nvalue = 0.0"] ;
516 -> 517 ;
518 [label="squared_error = 0.0\nsamples = 1\nvalue = 1.0"] ;
516 -> 518 ;
519 [label="squared_error = 0.0\nsamples = 7\nvalue = 1.0"] ;
515 -> 519 ;
520 [label="Lag_2 <= -0.391\nsquared_error = 0.98\nsamples = 7\nvalue = -0.143"] ;
506 -> 520 ;
521 [label="Lag_1 <= -0.718\nsquared_error = 0.96\nsamples = 5\nvalue = 0.2"] ;
520 -> 521 ;
522 [label="Lag_2 <= -0.922\nsquared_error = 0.75\nsamples = 4\nvalue = 0.5"] ;
521 -> 522 ;
523 [label="squared_error = 0.0\nsamples = 1\nvalue = -1.0"] ;
522 -> 523 ;
524 [label="squared_error = 0.0\nsamples = 3\nvalue = 1.0"] ;
522 -> 524 ;
525 [label="squared_error = 0.0\nsamples = 1\nvalue = -1.0"] ;
521 -> 525 ;
526 [label="squared_error = 0.0\nsamples = 2\nvalue = -1.0"] ;
520 -> 526 ;
527 [label="Lag_2 <= -0.804\nsquared_error = 0.64\nsamples = 5\nvalue = -0.6"] ;
505 -> 527 ;
528 [label="squared_error = 0.0\nsamples = 1\nvalue = 1.0"] ;
527 -> 528 ;
529 [label="squared_error = 0.0\nsamples = 4\nvalue = -1.0"] ;
527 -> 529 ;
530 [label="Lag_1 <= -0.969\nsquared_error = 0.866\nsamples = 41\nvalue = -0.366"] ;
504 -> 530 ;
531 [label="Lag_1 <= -1.165\nsquared_error = 1.0\nsamples = 20\nvalue = 0.0"] ;
530 -> 531 ;
532 [label="Lag_2 <= 2.385\nsquared_error = 0.49\nsamples = 7\nvalue = -0.714"] ;
531 -> 532 ;
533 [label="squared_error = 0.0\nsamples = 6\nvalue = -1.0"] ;
532 -> 533 ;
534 [label="squared_error = 0.0\nsamples = 1\nvalue = 1.0"] ;
532 -> 534 ;
535 [label="Lag_2 <= 1.309\nsquared_error = 0.852\nsamples = 13\nvalue = 0.385"] ;
531 -> 535 ;
536 [label="CPI <= 1.871\nsquared_error = 0.595\nsamples = 11\nvalue = 0.636"] ;
535 -> 536 ;
537 [label="Lag_2 <= 0.867\nsquared_error = 0.36\nsamples = 10\nvalue = 0.8"] ;
536 -> 537 ;
538 [label="squared_error = 0.0\nsamples = 8\nvalue = 1.0"] ;
537 -> 538 ;
539 [label="Lag_2 <= 1.118\nsquared_error = 1.0\nsamples = 2\nvalue = 0.0"] ;
537 -> 539 ;
540 [label="squared_error = 0.0\nsamples = 1\nvalue = -1.0"] ;
539 -> 540 ;
541 [label="squared_error = 0.0\nsamples = 1\nvalue = 1.0"] ;
539 -> 541 ;
542 [label="squared_error = 0.0\nsamples = 1\nvalue = -1.0"] ;
536 -> 542 ;
543 [label="squared_error = 0.0\nsamples = 2\nvalue = -1.0"] ;
535 -> 543 ;
544 [label="Unemployment <= 0.452\nsquared_error = 0.49\nsamples = 21\nvalue = -0.714"] ;
530 -> 544 ;
545 [label="squared_error = 0.0\nsamples = 13\nvalue = -1.0"] ;
544 -> 545 ;
546 [label="Lag_1 <= -0.82\nsquared_error = 0.938\nsamples = 8\nvalue = -0.25"] ;
544 -> 546 ;
547 [label="squared_error = 0.0\nsamples = 4\nvalue = -1.0"] ;
546 -> 547 ;
548 [label="CPI <= -0.191\nsquared_error = 0.75\nsamples = 4\nvalue = 0.5"] ;
546 -> 548 ;
549 [label="squared_error = 0.0\nsamples = 2\nvalue = 1.0"] ;
548 -> 549 ;
550 [label="Unemployment <= 0.519\nsquared_error = 1.0\nsamples = 2\nvalue = 0.0"] ;
548 -> 550 ;
551 [label="squared_error = 0.0\nsamples = 1\nvalue = 1.0"] ;
550 -> 551 ;
552 [label="squared_error = 0.0\nsamples = 1\nvalue = -1.0"] ;
550 -> 552 ;
553 [label="Lag_2 <= -0.973\nsquared_error = 0.96\nsamples = 314\nvalue = 0.156"] ;
503 -> 553 ;
554 [label="Unemployment <= 0.747\nsquared_error = 0.691\nsamples = 9\nvalue = -0.556"] ;
553 -> 554 ;
555 [label="squared_error = 0.0\nsamples = 7\nvalue = -1.0"] ;
554 -> 555 ;
556 [label="squared_error = 0.0\nsamples = 2\nvalue = 1.0"] ;
554 -> 556 ;
557 [label="Lag_1 <= 0.472\nsquared_error = 0.952\nsamples = 305\nvalue = 0.177"] ;
553 -> 557 ;
558 [label="Lag_1 <= 0.389\nsquared_error = 0.962\nsamples = 279\nvalue = 0.143"] ;
557 -> 558 ;
559 [label="Lag_1 <= 0.35\nsquared_error = 0.942\nsamples = 258\nvalue = 0.198"] ;
558 -> 559 ;
560 [label="Lag_1 <= 0.331\nsquared_error = 0.95\nsamples = 250\nvalue = 0.172"] ;
559 -> 560 ;
561 [label="CPI <= 2.338\nsquared_error = 0.938\nsamples = 242\nvalue = 0.202"] ;
560 -> 561 ;
562 [label="Lag_1 <= 0.284\nsquared_error = 0.95\nsamples = 230\nvalue = 0.17"] ;
561 -> 562 ;
563 [label="Lag_1 <= -0.525\nsquared_error = 0.955\nsamples = 225\nvalue = 0.151"] ;
562 -> 563 ;
564 [label="Lag_1 <= -0.556\nsquared_error = 0.833\nsamples = 44\nvalue = 0.409"] ;
563 -> 564 ;
565 [label="Lag_2 <= 0.666\nsquared_error = 0.949\nsamples = 31\nvalue = 0.226"] ;
564 -> 565 ;
566 [label="CPI <= 0.403\nsquared_error = 0.847\nsamples = 23\nvalue = 0.391"] ;
565 -> 566 ;
567 [label="squared_error = 0.0\nsamples = 6\nvalue = 1.0"] ;
566 -> 567 ;
568 [label="Lag_2 <= 0.202\nsquared_error = 0.969\nsamples = 17\nvalue = 0.176"] ;
566 -> 568 ;
569 [label="Lag_1 <= -0.689\nsquared_error = 0.972\nsamples = 12\nvalue = -0.167"] ;
568 -> 569 ;
570 [label="squared_error = 0.0\nsamples = 2\nvalue = 1.0"] ;
569 -> 570 ;
571 [label="Lag_2 <= -0.831\nsquared_error = 0.84\nsamples = 10\nvalue = -0.4"] ;
569 -> 571 ;
572 [label="squared_error = 0.0\nsamples = 1\nvalue = 1.0"] ;
571 -> 572 ;
573 [label="Lag_2 <= -0.482\nsquared_error = 0.691\nsamples = 9\nvalue = -0.556"] ;
571 -> 573 ;
574 [label="squared_error = 0.0\nsamples = 3\nvalue = -1.0"] ;
573 -> 574 ;
575 [label="Lag_2 <= 0.059\nsquared_error = 0.889\nsamples = 6\nvalue = -0.333"] ;
573 -> 575 ;
576 [label="Lag_1 <= -0.611\nsquared_error = 0.889\nsamples = 3\nvalue = 0.333"] ;
575 -> 576 ;
577 [label="squared_error = 0.0\nsamples = 2\nvalue = 1.0"] ;
576 -> 577 ;
578 [label="squared_error = 0.0\nsamples = 1\nvalue = -1.0"] ;
576 -> 578 ;
579 [label="squared_error = 0.0\nsamples = 3\nvalue = -1.0"] ;
575 -> 579 ;
580 [label="squared_error = 0.0\nsamples = 5\nvalue = 1.0"] ;
568 -> 580 ;
581 [label="Lag_2 <= 1.161\nsquared_error = 0.938\nsamples = 8\nvalue = -0.25"] ;
565 -> 581 ;
582 [label="squared_error = 0.0\nsamples = 4\nvalue = -1.0"] ;
581 -> 582 ;
583 [label="CPI <= -0.253\nsquared_error = 0.75\nsamples = 4\nvalue = 0.5"] ;
581 -> 583 ;
584 [label="squared_error = 0.0\nsamples = 1\nvalue = -1.0"] ;
583 -> 584 ;
585 [label="squared_error = 0.0\nsamples = 3\nvalue = 1.0"] ;
583 -> 585 ;
586 [label="Unemployment <= -0.574\nsquared_error = 0.284\nsamples = 13\nvalue = 0.846"] ;
564 -> 586 ;
587 [label="Lag_1 <= -0.537\nsquared_error = 1.0\nsamples = 2\nvalue = 0.0"] ;
586 -> 587 ;
588 [label="squared_error = 0.0\nsamples = 1\nvalue = 1.0"] ;
587 -> 588 ;
589 [label="squared_error = 0.0\nsamples = 1\nvalue = -1.0"] ;
587 -> 589 ;
590 [label="squared_error = 0.0\nsamples = 11\nvalue = 1.0"] ;
586 -> 590 ;
591 [label="Lag_1 <= -0.214\nsquared_error = 0.965\nsamples = 181\nvalue = 0.088"] ;
563 -> 591 ;
592 [label="Lag_1 <= -0.349\nsquared_error = 0.93\nsamples = 70\nvalue = -0.114"] ;
591 -> 592 ;
593 [label="Lag_1 <= -0.361\nsquared_error = 0.946\nsamples = 41\nvalue = 0.073"] ;
592 -> 593 ;
594 [label="Unemployment <= 0.556\nsquared_error = 0.941\nsamples = 36\nvalue = -0.056"] ;
593 -> 594 ;
595 [label="Unemployment <= 0.363\nsquared_error = 0.934\nsamples = 32\nvalue = 0.062"] ;
594 -> 595 ;
596 [label="Lag_2 <= 0.544\nsquared_error = 0.948\nsamples = 26\nvalue = -0.115"] ;
595 -> 596 ;
597 [label="Lag_1 <= -0.395\nsquared_error = 0.952\nsamples = 22\nvalue = 0.045"] ;
596 -> 597 ;
598 [label="Lag_2 <= 0.184\nsquared_error = 0.96\nsamples = 15\nvalue = -0.2"] ;
597 -> 598 ;
599 [label="Lag_1 <= -0.511\nsquared_error = 0.75\nsamples = 12\nvalue = -0.5"] ;
598 -> 599 ;
600 [label="Lag_1 <= -0.517\nsquared_error = 1.0\nsamples = 4\nvalue = 0.0"] ;
599 -> 600 ;
601 [label="squared_error = 0.0\nsamples = 2\nvalue = -1.0"] ;
600 -> 601 ;
602 [label="squared_error = 0.0\nsamples = 2\nvalue = 1.0"] ;
600 -> 602 ;
603 [label="Unemployment <= -0.611\nsquared_error = 0.438\nsamples = 8\nvalue = -0.75"] ;
599 -> 603 ;
604 [label="Lag_1 <= -0.499\nsquared_error = 1.0\nsamples = 2\nvalue = 0.0"] ;
603 -> 604 ;
605 [label="squared_error = 0.0\nsamples = 1\nvalue = -1.0"] ;
604 -> 605 ;
606 [label="squared_error = 0.0\nsamples = 1\nvalue = 1.0"] ;
604 -> 606 ;
607 [label="squared_error = 0.0\nsamples = 6\nvalue = -1.0"] ;
603 -> 607 ;
608 [label="squared_error = 0.0\nsamples = 3\nvalue = 1.0"] ;
598 -> 608 ;
609 [label="Lag_2 <= 0.142\nsquared_error = 0.531\nsamples = 7\nvalue = 0.571"] ;
597 -> 609 ;
610 [label="Lag_2 <= -0.558\nsquared_error = 0.139\nsamples = 6\nvalue = 0.833"] ;
609 -> 610 ;
611 [label="Unemployment <= -0.445\nsquared_error = 0.25\nsamples = 2\nvalue = 0.5"] ;
610 -> 611 ;
612 [label="squared_error = 0.0\nsamples = 1\nvalue = 1.0"] ;
611 -> 612 ;
613 [label="squared_error = 0.0\nsamples = 1\nvalue = 0.0"] ;
611 -> 613 ;
614 [label="squared_error = 0.0\nsamples = 4\nvalue = 1.0"] ;
610 -> 614 ;
615 [label="squared_error = 0.0\nsamples = 1\nvalue = -1.0"] ;
609 -> 615 ;
616 [label="squared_error = 0.0\nsamples = 4\nvalue = -1.0"] ;
596 -> 616 ;
617 [label="Lag_2 <= -0.102\nsquared_error = 0.139\nsamples = 6\nvalue = 0.833"] ;
595 -> 617 ;
618 [label="Lag_2 <= -0.768\nsquared_error = 0.25\nsamples = 2\nvalue = 0.5"] ;
617 -> 618 ;
619 [label="squared_error = 0.0\nsamples = 1\nvalue = 1.0"] ;
618 -> 619 ;
620 [label="squared_error = 0.0\nsamples = 1\nvalue = 0.0"] ;
618 -> 620 ;
621 [label="squared_error = 0.0\nsamples = 4\nvalue = 1.0"] ;
617 -> 621 ;
622 [label="squared_error = 0.0\nsamples = 4\nvalue = -1.0"] ;
594 -> 622 ;
623 [label="squared_error = 0.0\nsamples = 5\nvalue = 1.0"] ;
593 -> 623 ;
624 [label="CPI <= 0.728\nsquared_error = 0.787\nsamples = 29\nvalue = -0.379"] ;
592 -> 624 ;
625 [label="Lag_1 <= -0.284\nsquared_error = 0.923\nsamples = 14\nvalue = -0.071"] ;
624 -> 625 ;
626 [label="squared_error = 0.0\nsamples = 4\nvalue = 1.0"] ;
625 -> 626 ;
627 [label="CPI <= 0.479\nsquared_error = 0.65\nsamples = 10\nvalue = -0.5"] ;
625 -> 627 ;
628 [label="Lag_1 <= -0.273\nsquared_error = 0.122\nsamples = 7\nvalue = -0.857"] ;
627 -> 628 ;
629 [label="Lag_1 <= -0.275\nsquared_error = 0.25\nsamples = 2\nvalue = -0.5"] ;
628 -> 629 ;
630 [label="squared_error = 0.0\nsamples = 1\nvalue = -1.0"] ;
629 -> 630 ;
631 [label="squared_error = 0.0\nsamples = 1\nvalue = 0.0"] ;
629 -> 631 ;
632 [label="squared_error = 0.0\nsamples = 5\nvalue = -1.0"] ;
628 -> 632 ;
633 [label="Lag_1 <= -0.229\nsquared_error = 0.889\nsamples = 3\nvalue = 0.333"] ;
627 -> 633 ;
634 [label="squared_error = 0.0\nsamples = 2\nvalue = 1.0"] ;
633 -> 634 ;
635 [label="squared_error = 0.0\nsamples = 1\nvalue = -1.0"] ;
633 -> 635 ;
636 [label="Lag_1 <= -0.292\nsquared_error = 0.489\nsamples = 15\nvalue = -0.667"] ;
624 -> 636 ;
637 [label="squared_error = 0.0\nsamples = 9\nvalue = -1.0"] ;
636 -> 637 ;
638 [label="CPI <= 1.044\nsquared_error = 0.806\nsamples = 6\nvalue = -0.167"] ;
636 -> 638 ;
639 [label="squared_error = 0.0\nsamples = 3\nvalue = -1.0"] ;
638 -> 639 ;
640 [label="Lag_1 <= -0.233\nsquared_error = 0.222\nsamples = 3\nvalue = 0.667"] ;
638 -> 640 ;
641 [label="squared_error = 0.0\nsamples = 2\nvalue = 1.0"] ;
640 -> 641 ;
642 [label="squared_error = 0.0\nsamples = 1\nvalue = 0.0"] ;
640 -> 642 ;
643 [label="Lag_1 <= -0.007\nsquared_error = 0.944\nsamples = 111\nvalue = 0.216"] ;
591 -> 643 ;
644 [label="Unemployment <= -0.144\nsquared_error = 0.773\nsamples = 42\nvalue = 0.476"] ;
643 -> 644 ;
645 [label="Unemployment <= -0.564\nsquared_error = 0.395\nsamples = 18\nvalue = 0.778"] ;
644 -> 645 ;
646 [label="CPI <= 1.921\nsquared_error = 0.889\nsamples = 6\nvalue = 0.333"] ;
645 -> 646 ;
647 [label="Lag_1 <= -0.12\nsquared_error = 0.889\nsamples = 3\nvalue = -0.333"] ;
646 -> 647 ;
648 [label="squared_error = 0.0\nsamples = 2\nvalue = -1.0"] ;
647 -> 648 ;
649 [label="squared_error = 0.0\nsamples = 1\nvalue = 1.0"] ;
647 -> 649 ;
650 [label="squared_error = 0.0\nsamples = 3\nvalue = 1.0"] ;
646 -> 650 ;
651 [label="squared_error = 0.0\nsamples = 12\nvalue = 1.0"] ;
645 -> 651 ;
652 [label="Unemployment <= 0.363\nsquared_error = 0.938\nsamples = 24\nvalue = 0.25"] ;
644 -> 652 ;
653 [label="Unemployment <= 0.204\nsquared_error = 0.938\nsamples = 8\nvalue = -0.25"] ;
652 -> 653 ;
654 [label="Lag_2 <= 0.34\nsquared_error = 0.96\nsamples = 5\nvalue = 0.2"] ;
653 -> 654 ;
655 [label="squared_error = 0.0\nsamples = 3\nvalue = 1.0"] ;
654 -> 655 ;
656 [label="squared_error = 0.0\nsamples = 2\nvalue = -1.0"] ;
654 -> 656 ;
657 [label="squared_error = 0.0\nsamples = 3\nvalue = -1.0"] ;
653 -> 657 ;
658 [label="Lag_2 <= -0.594\nsquared_error = 0.75\nsamples = 16\nvalue = 0.5"] ;
652 -> 658 ;
659 [label="squared_error = 0.0\nsamples = 2\nvalue = -1.0"] ;
658 -> 659 ;
660 [label="CPI <= -0.246\nsquared_error = 0.49\nsamples = 14\nvalue = 0.714"] ;
658 -> 660 ;
661 [label="squared_error = 0.0\nsamples = 1\nvalue = -1.0"] ;
660 -> 661 ;
662 [label="Lag_2 <= -0.194\nsquared_error = 0.284\nsamples = 13\nvalue = 0.846"] ;
660 -> 662 ;
663 [label="Lag_1 <= -0.076\nsquared_error = 0.75\nsamples = 4\nvalue = 0.5"] ;
662 -> 663 ;
664 [label="squared_error = 0.0\nsamples = 1\nvalue = -1.0"] ;
663 -> 664 ;
665 [label="squared_error = 0.0\nsamples = 3\nvalue = 1.0"] ;
663 -> 665 ;
666 [label="squared_error = 0.0\nsamples = 9\nvalue = 1.0"] ;
662 -> 666 ;
667 [label="Lag_2 <= -0.338\nsquared_error = 0.982\nsamples = 69\nvalue = 0.058"] ;
643 -> 667 ;
668 [label="Lag_1 <= 0.005\nsquared_error = 0.816\nsamples = 21\nvalue = 0.429"] ;
667 -> 668 ;
669 [label="squared_error = 0.0\nsamples = 2\nvalue = -1.0"] ;
668 -> 669 ;
670 [label="Lag_1 <= 0.194\nsquared_error = 0.665\nsamples = 19\nvalue = 0.579"] ;
668 -> 670 ;
671 [label="Unemployment <= -0.301\nsquared_error = 0.284\nsamples = 13\nvalue = 0.846"] ;
670 -> 671 ;
672 [label="CPI <= 1.332\nsquared_error = 0.75\nsamples = 4\nvalue = 0.5"] ;
671 -> 672 ;
673 [label="squared_error = 0.0\nsamples = 1\nvalue = -1.0"] ;
672 -> 673 ;
674 [label="squared_error = 0.0\nsamples = 3\nvalue = 1.0"] ;
672 -> 674 ;
675 [label="squared_error = 0.0\nsamples = 9\nvalue = 1.0"] ;
671 -> 675 ;
676 [label="Lag_2 <= -0.543\nsquared_error = 1.0\nsamples = 6\nvalue = 0.0"] ;
670 -> 676 ;
677 [label="squared_error = 0.0\nsamples = 3\nvalue = -1.0"] ;
676 -> 677 ;
678 [label="squared_error = 0.0\nsamples = 3\nvalue = 1.0"] ;
676 -> 678 ;
679 [label="Lag_1 <= 0.142\nsquared_error = 0.968\nsamples = 48\nvalue = -0.104"] ;
667 -> 679 ;
680 [label="Lag_2 <= 0.859\nsquared_error = 0.852\nsamples = 26\nvalue = -0.385"] ;
679 -> 680 ;
681 [label="Lag_2 <= 0.464\nsquared_error = 0.665\nsamples = 19\nvalue = -0.579"] ;
680 -> 681 ;
682 [label="CPI <= 0.004\nsquared_error = 0.988\nsamples = 9\nvalue = -0.111"] ;
681 -> 682 ;
683 [label="squared_error = 0.0\nsamples = 3\nvalue = -1.0"] ;
682 -> 683 ;
684 [label="Unemployment <= -0.564\nsquared_error = 0.889\nsamples = 6\nvalue = 0.333"] ;
682 -> 684 ;
685 [label="Unemployment <= -0.578\nsquared_error = 0.889\nsamples = 3\nvalue = -0.333"] ;
684 -> 685 ;
686 [label="squared_error = 0.0\nsamples = 1\nvalue = 1.0"] ;
685 -> 686 ;
687 [label="squared_error = 0.0\nsamples = 2\nvalue = -1.0"] ;
685 -> 687 ;
688 [label="squared_error = 0.0\nsamples = 3\nvalue = 1.0"] ;
684 -> 688 ;
689 [label="squared_error = 0.0\nsamples = 10\nvalue = -1.0"] ;
681 -> 689 ;
690 [label="Lag_1 <= 0.036\nsquared_error = 0.98\nsamples = 7\nvalue = 0.143"] ;
680 -> 690 ;
691 [label="squared_error = 0.0\nsamples = 3\nvalue = -1.0"] ;
690 -> 691 ;
692 [label="squared_error = 0.0\nsamples = 4\nvalue = 1.0"] ;
690 -> 692 ;
693 [label="Lag_1 <= 0.212\nsquared_error = 0.903\nsamples = 22\nvalue = 0.227"] ;
679 -> 693 ;
694 [label="CPI <= 1.089\nsquared_error = 0.395\nsamples = 9\nvalue = 0.778"] ;
693 -> 694 ;
695 [label="squared_error = 0.0\nsamples = 6\nvalue = 1.0"] ;
694 -> 695 ;
696 [label="Unemployment <= -0.529\nsquared_error = 0.889\nsamples = 3\nvalue = 0.333"] ;
694 -> 696 ;
697 [label="squared_error = 0.0\nsamples = 2\nvalue = 1.0"] ;
696 -> 697 ;
698 [label="squared_error = 0.0\nsamples = 1\nvalue = -1.0"] ;
696 -> 698 ;
699 [label="Unemployment <= -0.53\nsquared_error = 0.899\nsamples = 13\nvalue = -0.154"] ;
693 -> 699 ;
700 [label="squared_error = 0.0\nsamples = 2\nvalue = 1.0"] ;
699 -> 700 ;
701 [label="CPI <= 0.161\nsquared_error = 0.777\nsamples = 11\nvalue = -0.364"] ;
699 -> 701 ;
702 [label="Lag_2 <= 0.231\nsquared_error = 0.75\nsamples = 4\nvalue = 0.5"] ;
701 -> 702 ;
703 [label="squared_error = 0.0\nsamples = 3\nvalue = 1.0"] ;
702 -> 703 ;
704 [label="squared_error = 0.0\nsamples = 1\nvalue = -1.0"] ;
702 -> 704 ;
705 [label="Lag_2 <= -0.219\nsquared_error = 0.122\nsamples = 7\nvalue = -0.857"] ;
701 -> 705 ;
706 [label="squared_error = 0.0\nsamples = 1\nvalue = 0.0"] ;
705 -> 706 ;
707 [label="squared_error = 0.0\nsamples = 6\nvalue = -1.0"] ;
705 -> 707 ;
708 [label="squared_error = 0.0\nsamples = 5\nvalue = 1.0"] ;
562 -> 708 ;
709 [label="Lag_1 <= 0.3\nsquared_error = 0.306\nsamples = 12\nvalue = 0.833"] ;
561 -> 709 ;
710 [label="squared_error = 0.0\nsamples = 11\nvalue = 1.0"] ;
709 -> 710 ;
711 [label="squared_error = 0.0\nsamples = 1\nvalue = -1.0"] ;
709 -> 711 ;
712 [label="Unemployment <= -0.53\nsquared_error = 0.438\nsamples = 8\nvalue = -0.75"] ;
560 -> 712 ;
713 [label="squared_error = 0.0\nsamples = 1\nvalue = 1.0"] ;
712 -> 713 ;
714 [label="squared_error = 0.0\nsamples = 7\nvalue = -1.0"] ;
712 -> 714 ;
715 [label="squared_error = 0.0\nsamples = 8\nvalue = 1.0"] ;
559 -> 715 ;
716 [label="Lag_2 <= -0.532\nsquared_error = 0.726\nsamples = 21\nvalue = -0.524"] ;
558 -> 716 ;
717 [label="squared_error = 0.0\nsamples = 2\nvalue = 1.0"] ;
716 -> 717 ;
718 [label="Unemployment <= 0.793\nsquared_error = 0.532\nsamples = 19\nvalue = -0.684"] ;
716 -> 718 ;
719 [label="Lag_1 <= 0.468\nsquared_error = 0.234\nsamples = 16\nvalue = -0.875"] ;
718 -> 719 ;
720 [label="squared_error = 0.0\nsamples = 14\nvalue = -1.0"] ;
719 -> 720 ;
721 [label="CPI <= 0.687\nsquared_error = 1.0\nsamples = 2\nvalue = 0.0"] ;
719 -> 721 ;
722 [label="squared_error = 0.0\nsamples = 1\nvalue = 1.0"] ;
721 -> 722 ;
723 [label="squared_error = 0.0\nsamples = 1\nvalue = -1.0"] ;
721 -> 723 ;
724 [label="Lag_2 <= -0.003\nsquared_error = 0.889\nsamples = 3\nvalue = 0.333"] ;
718 -> 724 ;
725 [label="squared_error = 0.0\nsamples = 1\nvalue = -1.0"] ;
724 -> 725 ;
726 [label="squared_error = 0.0\nsamples = 2\nvalue = 1.0"] ;
724 -> 726 ;
727 [label="CPI <= 2.338\nsquared_error = 0.71\nsamples = 26\nvalue = 0.538"] ;
557 -> 727 ;
728 [label="Lag_2 <= 0.181\nsquared_error = 0.556\nsamples = 24\nvalue = 0.667"] ;
727 -> 728 ;
729 [label="Lag_2 <= -0.549\nsquared_error = 0.926\nsamples = 11\nvalue = 0.273"] ;
728 -> 729 ;
730 [label="squared_error = 0.0\nsamples = 4\nvalue = 1.0"] ;
729 -> 730 ;
731 [label="Lag_2 <= -0.382\nsquared_error = 0.98\nsamples = 7\nvalue = -0.143"] ;
729 -> 731 ;
732 [label="squared_error = 0.0\nsamples = 3\nvalue = -1.0"] ;
731 -> 732 ;
733 [label="Lag_1 <= 0.532\nsquared_error = 0.75\nsamples = 4\nvalue = 0.5"] ;
731 -> 733 ;
734 [label="squared_error = 0.0\nsamples = 3\nvalue = 1.0"] ;
733 -> 734 ;
735 [label="squared_error = 0.0\nsamples = 1\nvalue = -1.0"] ;
733 -> 735 ;
736 [label="squared_error = 0.0\nsamples = 13\nvalue = 1.0"] ;
728 -> 736 ;
737 [label="squared_error = 0.0\nsamples = 2\nvalue = -1.0"] ;
727 -> 737 ;
738 [label="Lag_1 <= 0.665\nsquared_error = 0.967\nsamples = 134\nvalue = -0.06"] ;
492 -> 738 ;
739 [label="Lag_2 <= 0.298\nsquared_error = 0.705\nsamples = 22\nvalue = -0.5"] ;
738 -> 739 ;
740 [label="Unemployment <= 0.494\nsquared_error = 0.311\nsamples = 14\nvalue = -0.786"] ;
739 -> 740 ;
741 [label="CPI <= 2.172\nsquared_error = 0.076\nsamples = 12\nvalue = -0.917"] ;
740 -> 741 ;
742 [label="squared_error = 0.0\nsamples = 10\nvalue = -1.0"] ;
741 -> 742 ;
743 [label="Lag_2 <= 0.158\nsquared_error = 0.25\nsamples = 2\nvalue = -0.5"] ;
741 -> 743 ;
744 [label="squared_error = 0.0\nsamples = 1\nvalue = 0.0"] ;
743 -> 744 ;
745 [label="squared_error = 0.0\nsamples = 1\nvalue = -1.0"] ;
743 -> 745 ;
746 [label="Lag_2 <= -0.124\nsquared_error = 1.0\nsamples = 2\nvalue = 0.0"] ;
740 -> 746 ;
747 [label="squared_error = 0.0\nsamples = 1\nvalue = 1.0"] ;
746 -> 747 ;
748 [label="squared_error = 0.0\nsamples = 1\nvalue = -1.0"] ;
746 -> 748 ;
749 [label="CPI <= 1.559\nsquared_error = 1.0\nsamples = 8\nvalue = 0.0"] ;
739 -> 749 ;
750 [label="Lag_1 <= 0.606\nsquared_error = 0.64\nsamples = 5\nvalue = 0.6"] ;
749 -> 750 ;
751 [label="squared_error = 0.0\nsamples = 3\nvalue = 1.0"] ;
750 -> 751 ;
752 [label="Lag_2 <= 0.879\nsquared_error = 1.0\nsamples = 2\nvalue = 0.0"] ;
750 -> 752 ;
753 [label="squared_error = 0.0\nsamples = 1\nvalue = 1.0"] ;
752 -> 753 ;
754 [label="squared_error = 0.0\nsamples = 1\nvalue = -1.0"] ;
752 -> 754 ;
755 [label="squared_error = 0.0\nsamples = 3\nvalue = -1.0"] ;
749 -> 755 ;
756 [label="Lag_1 <= 0.69\nsquared_error = 0.972\nsamples = 112\nvalue = 0.027"] ;
738 -> 756 ;
757 [label="Unemployment <= 1.038\nsquared_error = 0.438\nsamples = 8\nvalue = 0.75"] ;
756 -> 757 ;
758 [label="squared_error = 0.0\nsamples = 7\nvalue = 1.0"] ;
757 -> 758 ;
759 [label="squared_error = 0.0\nsamples = 1\nvalue = -1.0"] ;
757 -> 759 ;
760 [label="Lag_1 <= 0.746\nsquared_error = 0.97\nsamples = 104\nvalue = -0.029"] ;
756 -> 760 ;
761 [label="squared_error = 0.0\nsamples = 7\nvalue = -1.0"] ;
760 -> 761 ;
762 [label="Lag_2 <= -0.898\nsquared_error = 0.967\nsamples = 97\nvalue = 0.041"] ;
760 -> 762 ;
763 [label="Lag_1 <= 1.51\nsquared_error = 0.484\nsamples = 8\nvalue = -0.625"] ;
762 -> 763 ;
764 [label="squared_error = 0.0\nsamples = 4\nvalue = -1.0"] ;
763 -> 764 ;
765 [label="Lag_1 <= 2.263\nsquared_error = 0.688\nsamples = 4\nvalue = -0.25"] ;
763 -> 765 ;
766 [label="Lag_2 <= -1.489\nsquared_error = 0.25\nsamples = 2\nvalue = 0.5"] ;
765 -> 766 ;
767 [label="squared_error = 0.0\nsamples = 1\nvalue = 1.0"] ;
766 -> 767 ;
768 [label="squared_error = 0.0\nsamples = 1\nvalue = 0.0"] ;
766 -> 768 ;
769 [label="squared_error = 0.0\nsamples = 2\nvalue = -1.0"] ;
765 -> 769 ;
770 [label="Lag_1 <= 2.509\nsquared_error = 0.967\nsamples = 89\nvalue = 0.101"] ;
762 -> 770 ;
771 [label="Unemployment <= 0.747\nsquared_error = 0.972\nsamples = 86\nvalue = 0.07"] ;
770 -> 771 ;
772 [label="Lag_2 <= -0.07\nsquared_error = 0.963\nsamples = 72\nvalue = 0.153"] ;
771 -> 772 ;
773 [label="CPI <= 1.921\nsquared_error = 0.816\nsamples = 28\nvalue = 0.429"] ;
772 -> 773 ;
774 [label="Unemployment <= 0.664\nsquared_error = 0.581\nsamples = 17\nvalue = 0.647"] ;
773 -> 774 ;
775 [label="Lag_1 <= 0.814\nsquared_error = 0.462\nsamples = 15\nvalue = 0.733"] ;
774 -> 775 ;
776 [label="CPI <= 0.836\nsquared_error = 1.0\nsamples = 2\nvalue = 0.0"] ;
775 -> 776 ;
777 [label="squared_error = 0.0\nsamples = 1\nvalue = -1.0"] ;
776 -> 777 ;
778 [label="squared_error = 0.0\nsamples = 1\nvalue = 1.0"] ;
776 -> 778 ;
779 [label="Lag_1 <= 1.302\nsquared_error = 0.284\nsamples = 13\nvalue = 0.846"] ;
775 -> 779 ;
780 [label="squared_error = 0.0\nsamples = 8\nvalue = 1.0"] ;
779 -> 780 ;
781 [label="Lag_1 <= 1.367\nsquared_error = 0.64\nsamples = 5\nvalue = 0.6"] ;
779 -> 781 ;
782 [label="squared_error = 0.0\nsamples = 1\nvalue = -1.0"] ;
781 -> 782 ;
783 [label="squared_error = 0.0\nsamples = 4\nvalue = 1.0"] ;
781 -> 783 ;
784 [label="Lag_1 <= 0.886\nsquared_error = 1.0\nsamples = 2\nvalue = 0.0"] ;
774 -> 784 ;
785 [label="squared_error = 0.0\nsamples = 1\nvalue = 1.0"] ;
784 -> 785 ;
786 [label="squared_error = 0.0\nsamples = 1\nvalue = -1.0"] ;
784 -> 786 ;
787 [label="Lag_2 <= -0.427\nsquared_error = 0.992\nsamples = 11\nvalue = 0.091"] ;
773 -> 787 ;
788 [label="Lag_2 <= -0.708\nsquared_error = 0.64\nsamples = 5\nvalue = -0.6"] ;
787 -> 788 ;
789 [label="squared_error = 0.0\nsamples = 1\nvalue = 1.0"] ;
788 -> 789 ;
790 [label="squared_error = 0.0\nsamples = 4\nvalue = -1.0"] ;
788 -> 790 ;
791 [label="Lag_1 <= 0.896\nsquared_error = 0.556\nsamples = 6\nvalue = 0.667"] ;
787 -> 791 ;
792 [label="squared_error = 0.0\nsamples = 1\nvalue = -1.0"] ;
791 -> 792 ;
793 [label="squared_error = 0.0\nsamples = 5\nvalue = 1.0"] ;
791 -> 793 ;
794 [label="Lag_2 <= 0.194\nsquared_error = 0.977\nsamples = 44\nvalue = -0.023"] ;
772 -> 794 ;
795 [label="Unemployment <= 0.519\nsquared_error = 0.71\nsamples = 13\nvalue = -0.538"] ;
794 -> 795 ;
796 [label="Lag_1 <= 0.785\nsquared_error = 0.556\nsamples = 12\nvalue = -0.667"] ;
795 -> 796 ;
797 [label="squared_error = 0.0\nsamples = 1\nvalue = 1.0"] ;
796 -> 797 ;
798 [label="CPI <= 2.177\nsquared_error = 0.331\nsamples = 11\nvalue = -0.818"] ;
796 -> 798 ;
799 [label="squared_error = 0.0\nsamples = 9\nvalue = -1.0"] ;
798 -> 799 ;
800 [label="Lag_1 <= 0.965\nsquared_error = 1.0\nsamples = 2\nvalue = 0.0"] ;
798 -> 800 ;
801 [label="squared_error = 0.0\nsamples = 1\nvalue = 1.0"] ;
800 -> 801 ;
802 [label="squared_error = 0.0\nsamples = 1\nvalue = -1.0"] ;
800 -> 802 ;
803 [label="squared_error = 0.0\nsamples = 1\nvalue = 1.0"] ;
795 -> 803 ;
804 [label="Lag_1 <= 1.316\nsquared_error = 0.93\nsamples = 31\nvalue = 0.194"] ;
794 -> 804 ;
805 [label="Lag_1 <= 1.033\nsquared_error = 0.941\nsamples = 18\nvalue = -0.056"] ;
804 -> 805 ;
806 [label="CPI <= 1.158\nsquared_error = 0.916\nsamples = 15\nvalue = 0.133"] ;
805 -> 806 ;
807 [label="Lag_1 <= 0.825\nsquared_error = 0.691\nsamples = 9\nvalue = 0.444"] ;
806 -> 807 ;
808 [label="squared_error = 0.0\nsamples = 3\nvalue = 1.0"] ;
807 -> 808 ;
809 [label="Lag_1 <= 0.847\nsquared_error = 0.806\nsamples = 6\nvalue = 0.167"] ;
807 -> 809 ;
810 [label="squared_error = 0.0\nsamples = 1\nvalue = -1.0"] ;
809 -> 810 ;
811 [label="Lag_2 <= 0.522\nsquared_error = 0.64\nsamples = 5\nvalue = 0.4"] ;
809 -> 811 ;
812 [label="squared_error = 0.0\nsamples = 1\nvalue = -1.0"] ;
811 -> 812 ;
813 [label="Lag_1 <= 0.942\nsquared_error = 0.188\nsamples = 4\nvalue = 0.75"] ;
811 -> 813 ;
814 [label="squared_error = 0.0\nsamples = 3\nvalue = 1.0"] ;
813 -> 814 ;
815 [label="squared_error = 0.0\nsamples = 1\nvalue = 0.0"] ;
813 -> 815 ;
816 [label="Lag_2 <= 1.68\nsquared_error = 0.889\nsamples = 6\nvalue = -0.333"] ;
806 -> 816 ;
817 [label="Unemployment <= -0.616\nsquared_error = 0.64\nsamples = 5\nvalue = -0.6"] ;
816 -> 817 ;
818 [label="Lag_2 <= 0.849\nsquared_error = 1.0\nsamples = 2\nvalue = 0.0"] ;
817 -> 818 ;
819 [label="squared_error = 0.0\nsamples = 1\nvalue = -1.0"] ;
818 -> 819 ;
820 [label="squared_error = 0.0\nsamples = 1\nvalue = 1.0"] ;
818 -> 820 ;
821 [label="squared_error = 0.0\nsamples = 3\nvalue = -1.0"] ;
817 -> 821 ;
822 [label="squared_error = 0.0\nsamples = 1\nvalue = 1.0"] ;
816 -> 822 ;
823 [label="squared_error = 0.0\nsamples = 3\nvalue = -1.0"] ;
805 -> 823 ;
824 [label="Lag_1 <= 2.289\nsquared_error = 0.71\nsamples = 13\nvalue = 0.538"] ;
804 -> 824 ;
825 [label="Lag_1 <= 1.463\nsquared_error = 0.556\nsamples = 12\nvalue = 0.667"] ;
824 -> 825 ;
826 [label="Unemployment <= 0.309\nsquared_error = 0.889\nsamples = 6\nvalue = 0.333"] ;
825 -> 826 ;
827 [label="Lag_1 <= 1.379\nsquared_error = 0.889\nsamples = 3\nvalue = -0.333"] ;
826 -> 827 ;
828 [label="squared_error = 0.0\nsamples = 1\nvalue = 1.0"] ;
827 -> 828 ;
829 [label="squared_error = 0.0\nsamples = 2\nvalue = -1.0"] ;
827 -> 829 ;
830 [label="squared_error = 0.0\nsamples = 3\nvalue = 1.0"] ;
826 -> 830 ;
831 [label="squared_error = 0.0\nsamples = 6\nvalue = 1.0"] ;
825 -> 831 ;
832 [label="squared_error = 0.0\nsamples = 1\nvalue = -1.0"] ;
824 -> 832 ;
833 [label="Lag_1 <= 1.075\nsquared_error = 0.801\nsamples = 14\nvalue = -0.357"] ;
771 -> 833 ;
834 [label="squared_error = 0.0\nsamples = 3\nvalue = -1.0"] ;
833 -> 834 ;
835 [label="Lag_1 <= 1.207\nsquared_error = 0.876\nsamples = 11\nvalue = -0.182"] ;
833 -> 835 ;
836 [label="squared_error = 0.0\nsamples = 2\nvalue = 1.0"] ;
835 -> 836 ;
837 [label="Lag_1 <= 1.924\nsquared_error = 0.691\nsamples = 9\nvalue = -0.444"] ;
835 -> 837 ;
838 [label="Lag_2 <= -0.097\nsquared_error = 0.776\nsamples = 7\nvalue = -0.286"] ;
837 -> 838 ;
839 [label="Lag_1 <= 1.231\nsquared_error = 0.188\nsamples = 4\nvalue = -0.75"] ;
838 -> 839 ;
840 [label="squared_error = 0.0\nsamples = 1\nvalue = 0.0"] ;
839 -> 840 ;
841 [label="squared_error = 0.0\nsamples = 3\nvalue = -1.0"] ;
839 -> 841 ;
842 [label="Lag_2 <= 0.319\nsquared_error = 0.889\nsamples = 3\nvalue = 0.333"] ;
838 -> 842 ;
843 [label="squared_error = 0.0\nsamples = 2\nvalue = 1.0"] ;
842 -> 843 ;
844 [label="squared_error = 0.0\nsamples = 1\nvalue = -1.0"] ;
842 -> 844 ;
845 [label="squared_error = 0.0\nsamples = 2\nvalue = -1.0"] ;
837 -> 845 ;
846 [label="squared_error = 0.0\nsamples = 3\nvalue = 1.0"] ;
770 -> 846 ;
}